tree
version=v4
num_class=1
num_tree_per_iteration=1
label_index=0
max_feature_idx=40
objective=lambdarank
feature_names=venue_code exhibition_time exhibition_start_timing pred_course nat_win_rate motor_rate boat_rate weight branch course_run_count course_quinella_rate course_trifecta_rate course_1st_rate course_avg_st nige_count makuri_count sashi_count wind_speed wind_direction wave_height local_win_rate venue_course_1st_rate venue_course_2nd_rate venue_course_3rd_rate st_std_dev series_avg_rank makuri_rate nige_rate inner_st_gap slit_formation anti_nige_potential wall_strength follow_potential tenji_z_score linear_rank is_linear_leader weight_diff high_wind_alert local_perf_diff wind_vector_long wind_vector_lat
feature_infos=[1:20] [6.3600000000000003:9.8900000000000006] [0:0.95999999999999996] [1:6] [0:9.0999999999999996] [0:91.670000000000002] [0:90.909999999999997] [0:70] -1:23:31:21:9:17:7:38:18:34:14:39:3:0:19:2:30:36:26:29:5:24:1:28:27:35:20:10:15:13:8:40:16:11:6:42:12:25:4:37:33:32 [0:6676] [0:100] [0:100] [0:100] [0:0.32000000000000001] [0:1289] [0:612] [0:451] [0:15] -1:4:5:8:0:9:10:3:14:13:7:16:1:6:11:2:12:15 [0:40] [0:8.4499999999999993] [0.80000000000000004:67.700000000000003] [4.2999999999999998:31.199999999999999] [6.5:24.5] [0.055164638400722402:0.33729143398152861] [1:6] [0:0.5] [0:0.80000000000000004] [-0.81000000000000005:0.79999999999999993] [-0.59499999999999997:0.79999999999999993] [0:0.3834951456310679] [0:100] [0:15.4] [-2.0277874990045719:2.041241452319301] [1:6] [0:1] [-45.833333333333336:27] [0:1] [-6.7999999999999998:7.1500000000000004] [-15:15] [-11:13]
tree_sizes=3606 3597 3583 3593 3606 3578 3583 3592 3582 3605 3594 3603 3614 3603 3610 3601 3603 3585 3616 3575 3604 3587 3598 3602 3594 3602 3586 3593 3604 3601 3591 3606 3601 3592 3583 3599 3593 3591 3590 3633 3583 3575 3597 3623 3576 3600 3629 3578 3571 3587 3583 3560 3602 3593 3585 3639 3627 3593 3612 3610 3627 3575 3617 3593 3605 3622 3595 3604 3604 3623 3603 3620 3573 3595 3584 3617 3613 3630 3618 3605 3623 3634 3596 3609 3636 3637 3634 3624 3610 3623 3578 3627 3624 3634 3621 3628 3641 3607 3568 3638 3604 3608 3639 3614 3635 3637 3599 3597 3628 3623 3624 3648 3598 3623 3625 3615 3619 3630 3607 3610 3618 3631 3623 3640 3576 3601 3615 3629 3596 3629 3605 3601 3616 3624 3623 3609 3631 3622 3642 3610 3635 3617 3606 3615 3633 3607 3607 3604 3626 3587 3637 3615 3567 3638 3642 3649 3595 3614 3628 3627 3602 3604 3576 3647 3599 3610 3602 3616 3623 3572 3625 3609 3584 3621 3630 3605 3578 3640 3633 3601 3597 3557 3585 3602 3596 3612 3628 3607 3611 3609 3609 3593 3620 3623 3604 3653 3629 3570 3583 3587 3685 3647 3633 3569 3619 3550 3648 3635 3663 3659 3647 3584 3579 3575 3597 3621 3569 3570 3569 3569 3636 3613 3643 3599 3628 3626 3551 3615 3572 3571 3640 3591 3613 3607 3607 3599 3580 3620 3618 3575 3577 3634 3616 3618 3656 3553 3638 3647 3572 3601 3608 3584 3570 3569 3564 3608 3598 3548 3639 3619 3551 3634 3636 3588 3516 3644 3537 3596 3594 3638 3624 3606 3681 3599 3560 3644 3573 3570 3594 3634 3645 3577 3557 3569 3627 3558 3586 3621 3573 3561 3643 3568 3514 3517 3603 3557 3534 3524 3525 3659 3638 3575 3539 3534 3518 3531 3513 3646 3584 3609 3545 3560 3556 3637 3522 3548 3627

Tree=0
num_leaves=31
num_cat=0
split_feature=10 10 27 30 3 12 4 4 31 32 31 4 34 4 30 31 2 4 4 33 30 26 12 30 4 4 31 4 4 30
split_gain=383432 58062.8 34432 16792.2 11839.6 8634.4 5779.48 4506.4 4266.12 4790.45 3113.48 3916.54 3261.06 2609.66 2373.71 2198.24 2031.93 2106.49 1847.81 1771.87 1746.21 2047.18 1636.07 1628.84 1458.63 1336.47 1334.39 1287.22 1240.42 1207.75
threshold=46.750000000000007 24.550000000000004 0.3772457981840428 0.036999575644257106 2.5000000000000004 3.7500000000000004 4.7550000000000008 5.6650000000000009 76.050000000000011 1.9460731907894739 66.350000000000009 4.8750000000000009 5.5000000000000009 4.995000000000001 0.014932440197669452 32.050000000000004 0.37500000000000006 4.3750000000000009 5.3550000000000013 0.19179769150499645 0.055855965335950955 0.075297661233167959 56.750000000000007 0.050859968167832906 5.9350000000000014 4.7350000000000012 24.750000000000004 6.0550000000000006 6.0550000000000006 0.023187986522861952
decision_type=10 8 10 10 2 10 2 2 10 10 10 2 8 2 8 10 8 2 2 2 10 10 10 10 2 2 10 2 2 8
left_child=1 5 8 4 10 18 -6 16 9 -2 11 12 -3 -5 24 27 -4 -18 -1 29 21 -15 -9 -11 -7 -12 -26 -8 -16 -17
right_child=2 3 7 13 6 14 15 22 -10 23 25 -13 -14 20 28 19 17 -19 -20 -21 -22 -23 -24 -25 26 -27 -28 -29 -30 -31
leaf_value=-0.075719326619814065 0.035776547604602742 0.01918737055639378 0.060095093848115927 -0.0086062134326675283 -0.051300717216869351 -0.055365044664887633 -0.0234901543969421 0.061223461338487967 -0.00049728252829328145 -0.010452956543982929 -0.037632122306447496 0.023379460294517276 -0.016653628473435645 0.019571921311997323 -0.035717869598789656 -0.043242117835591204 -0.00336473434825613 0.045109548122140693 -0.053323330331710717 -0.013854292802056363 0.027926101933546318 -0.0073860937697172602 0.073946049568788585 0.026076443515929155 -0.024092524459360536 -0.011656883399728604 -0.050871867085473893 -0.0031406888247787475 0.0028194173169365871 -0.026772412675719417
leaf_weight=40316.21860874258 73380.186977437697 8466.6447653025389 25241.318580389023 16189.523142021149 27877.955611311831 43102.59975617379 17829.505164089613 37823.358320336789 12455.840042160824 8298.9517952725291 7900.0347065515816 14504.904633404687 25345.221832502633 15545.809480845928 24000.306492127478 24072.495365157723 2606.8409351930022 15977.372978523374 11936.76964732632 11809.336104296148 16206.19259619806 12874.821593889967 76130.744644738734 4826.3637691475451 8551.4998950855806 13270.056726681069 10200.848026907071 13775.261221686378 2287.0609330069274 20705.816898844205
leaf_count=503155 416607 51287 88592 187835 377047 500897 192454 134750 126919 83757 99189 101832 186795 157881 303690 269875 13575 62660 131031 109287 159059 130579 256167 45189 82709 145051 109855 128201 22517 243746
internal_value=0.00261021 -0.0288353 0.0499815 -0.0142111 -0.0216841 -0.0544987 -0.0314563 0.0644829 0.026861 0.0308003 -0.00536077 0.00164497 -0.00767888 0.00858999 -0.0449515 -0.0251834 0.0508571 0.03831 -0.0706031 -0.0310828 0.0148284 0.00735968 0.0697232 0.00297942 -0.0503006 -0.0213501 -0.0386599 -0.0146206 -0.032365 -0.0356264
internal_weight=643510 386769 256741 246374 185557 140395 116070 157780 98961.3 86505.5 69486.9 48316.8 33811.9 60816.3 88142.3 88192.4 43825.5 18584.2 52253 56587.6 44626.8 28420.6 113954 13125.3 61854.9 21170.1 18752.3 31604.8 26287.4 44778.3
internal_count=5422188 4193972 1228216 2540118 1904764 1653854 1320610 555744 672472 545553 584154 339914 238082 635354 1019668 943563 164827 76235 634186 622908 447519 288460 390917 128946 693461 244240 192564 320655 326207 513621
is_linear=0
shrinkage=0.05


Tree=1
num_leaves=31
num_cat=0
split_feature=27 12 12 4 4 33 4 30 31 33 12 12 2 31 34 31 30 4 4 20 4 4 31 4 32 30 4 33 30 30
split_gain=571005 196876 44505.6 25078.4 22382.6 21628.9 21930.8 16232.7 11527 10349.2 9454.1 8440.11 7519.85 7359.69 7218.17 6057.38 5605.64 5565.49 5203.15 4908.26 4784.12 4772.3 4220.59 4041.62 3903.11 3215.56 3002.44 2995.16 2851.95 2796.73
threshold=0.3772457981840428 12.65 4.6500000000000012 4.2350000000000012 5.6650000000000009 0.12082631123117381 5.8550000000000013 0.042326897379448454 20.050000000000004 1.0000000180025095e-35 1.6500000000000001 56.750000000000007 0.37500000000000006 32.050000000000004 4.5000000000000009 36.150000000000013 0.017254466253091055 4.2350000000000012 6.1550000000000011 6.4350000000000014 6.6150000000000011 5.495000000000001 1.0000000180025095e-35 3.2850000000000006 1.0429689084492761 0.014280792871260852 4.535000000000001 0.14030338331660056 0.043646481578085601 0.018756349793909055
decision_type=10 10 8 2 2 2 2 8 10 2 10 10 8 10 8 10 8 2 2 10 2 2 10 2 8 8 2 2 10 10
left_child=1 2 10 14 12 6 13 15 20 16 -1 -6 -2 23 -4 -8 -10 -14 27 -9 25 -18 -16 -3 -17 -5 -15 -12 -7 -11
right_child=4 5 3 8 11 28 7 19 9 29 18 -13 17 26 22 24 21 -19 -20 -21 -22 -23 -24 -25 -26 -27 -28 -29 -30 -31
leaf_value=-0.069021295134207503 0.051067840603392992 -0.035261719882686456 -0.017012208594186021 -0.018655526703276911 0.053872057013016061 0.016398604246345275 0.014407118300396433 0.014495725060194992 -0.03072330196305121 -0.0099767932641390243 -0.050706487437767955 0.071867207669794084 -0.016585267203842301 -0.026896085633633045 -0.028665289722268852 0.0049188990462754973 -0.02268037191736863 0.032164590947977051 -0.018223659525060762 0.0310201011690798 0.02678404554043079 -0.0026713138664621059 -0.048008911513281467 0.0019315976986302259 -0.010889204243447775 0.001407528966227858 -0.0098814655413080113 -0.029906324834465009 0.028682427218418224 0.009301463427888651
leaf_weight=43904.92401488591 68702.146220125258 7556.2869655247778 36640.349265800789 27736.003595618531 101274.77372193336 177924.70491665043 68151.568100199103 97910.198603659868 132365.49025639705 52668.517668448389 83926.123055749573 182719.87486602366 6650.7598526142538 30978.798106888309 40656.221249656752 73769.804005749524 93465.692541220225 48906.188071593642 19361.590088538826 83061.544769857079 14240.774489631876 43748.191401836462 92034.610409806482 218830.40910915658 82958.34012616612 71336.391279209405 159028.94121596403 21803.501023587771 64337.362470306456 29266.71064459905
leaf_count=243129 88660 15289 108943 89683 134750 306470 134067 159220 482606 147565 413404 256167 11310 88867 117755 156218 306444 64928 70098 128795 31132 124019 364900 339438 239245 170990 371932 87448 99733 68983
internal_value=0.00413908 -0.00757013 -0.0262594 -0.0201834 0.0577059 0.00653063 0.00266202 0.0109332 -0.0141821 -0.0186526 -0.0490596 0.06545 0.0400068 -0.00539969 -0.0366574 0.00196275 -0.0233824 0.0263287 -0.0420533 0.02208 -0.00031414 -0.0163008 -0.0420821 0.000690167 -0.00344855 -0.00420926 -0.0126555 -0.0464171 0.0196608 -0.00309073
internal_weight=2.27592e+06 1.86766e+06 803155 634159 408254 1.06451e+06 822246 405851 464828 351515 168996 283995 124259 416394 169331 224880 269579 55556.9 125091 180972 113313 137214 132691 226387 156728 99072.4 190008 105730 242262 81935.2
internal_count=5422188 4866373 2827099 2013020 555815 2039274 1633071 817545 1421422 1129617 814079 390917 164898 815526 591598 529530 913069 76238 570950 288015 291805 430463 482655 354727 395463 260673 460799 500852 406203 216548
is_linear=0
shrinkage=0.05


Tree=2
num_leaves=31
num_cat=0
split_feature=12 10 12 4 10 4 27 30 33 2 4 25 4 31 34 21 4 33 25 31 9 31 4 34 31 4 4 10 20 27
split_gain=456719 139327 32896.5 25238.3 19562.2 18308.6 8251.94 7962.57 7563.63 7558.85 6316.6 5980.3 5930.44 5854.42 5026.65 4916.65 4828.79 4774.81 4575.51 3982 3532.66 3482.32 3231.93 3046.13 4012.72 3036.97 2912.69 2699.85 2459.25 2088.45
threshold=36.750000000000007 32.350000000000001 4.1500000000000012 5.6650000000000009 42.45000000000001 4.495000000000001 0.51620084651580722 0.018970564349677001 1.0000000180025095e-35 0.37500000000000006 5.3350000000000009 2.291666666666667 6.3850000000000007 40.850000000000001 4.5000000000000009 8.1500000000000004 4.5750000000000011 0.52349710314598696 2.5500000000000003 43.850000000000001 574.50000000000011 27.650000000000002 5.3950000000000005 4.5000000000000009 8.5500000000000025 2.3650000000000007 5.1950000000000012 51.45000000000001 6.455000000000001 0.3772457981840428
decision_type=10 10 8 2 8 2 8 8 2 8 2 2 2 10 8 2 2 2 2 10 10 10 2 8 10 2 2 10 10 10
left_child=1 2 10 9 13 8 29 18 15 -2 25 -6 23 22 -15 -4 -11 19 28 26 -20 -17 -3 -9 -25 -1 -13 -21 -7 -5
right_child=3 4 5 6 11 7 -8 12 -10 16 -12 17 -14 14 -16 21 -18 -19 20 27 -22 -23 -24 24 -26 -27 -28 -29 -30 -31
leaf_value=-0.075401229778504858 0.046832991996938432 -0.0049354260864712604 -0.049764300357782003 0.030799503202748574 0.023949805418172189 -0.013359462658683752 0.069570734540294624 0.0050182097902448618 -0.01012559820137574 -0.003657382130756821 -0.0296659778996698 0.0043704448174321292 0.020200627496239822 0.0012299024493352974 -0.015920361330831093 -0.021530251911632735 0.030445213521134242 0.021385983149513614 -0.010297346837695974 -0.0028310121777297558 -0.027983429583857855 -0.037871797224496323 0.0076012338958509375 0.0011251017990269257 -0.017347100609711612 -0.050717955238512025 0.017567751840783512 0.010364973227008453 0.012211437883396509 0.053492075120881034
leaf_weight=15191.204664234072 75636.085357382894 82358.047376897186 43502.72256003134 11696.680789709091 89153.878694243729 30216.681855720468 158743.233572945 34049.033979769796 36338.497478418052 13055.877036593854 34120.874999200925 67790.494860105217 20291.68024097383 69729.388102121651 110318.87354068831 60273.460019672289 50648.430480677634 72227.3897369802 37239.762630066834 110526.36013392918 116756.78163542412 71005.323375886306 136802.60772631504 42418.148000231013 95792.427336941473 69354.198243950494 109083.29923234321 59696.227355260402 13650.300163726322 76135.83983156085
leaf_count=111246 110459 191919 221580 16012 165203 111942 268319 85001 113477 23267 167656 111527 44611 164048 335250 189083 76438 117004 128398 266176 477722 315294 290690 93059 319539 438251 180120 125637 40662 122598
internal_value=0.00425004 -0.0073436 -0.0237652 0.0531549 0.00568609 -0.019019 0.0627669 -0.0126044 -0.0308812 0.0361454 -0.0478246 0.01219 -0.00536598 -0.00259804 -0.00927838 -0.0351964 0.0234561 0.00968971 -0.0196485 0.00725583 -0.0237065 -0.030369 0.0028901 -0.00837765 -0.0116778 -0.0551531 0.0125096 0.00179676 -0.00540244 0.0504701
internal_weight=2.0138e+06 1.62789e+06 720201 385916 907687 601535 246576 390415 211120 139340 118666 508478 192551 399209 180048 174782 63704.3 419324 197864 347096 153997 131279 219161 172260 138211 84545.4 176874 170223 43867 87832.5
internal_count=5422188 4805095 2857521 617093 1947574 2140368 406929 1300934 839434 210164 717153 965667 542210 981907 499298 725957 99705 800464 758724 683460 606120 504377 482609 497599 412598 549497 291647 391813 152604 138610
is_linear=0
shrinkage=0.05


Tree=3
num_leaves=31
num_cat=0
split_feature=27 10 12 4 4 12 34 4 33 2 31 4 30 4 33 12 25 12 21 33 31 4 4 30 21 33 20 10 4 9
split_gain=373214 120517 29456.5 16620.8 15051.2 14000 9187.96 6895 6022.03 5971.74 5370.37 5169.59 5004.54 4315.14 4166.96 4063.5 4055.35 3893.22 3805.72 3803.61 3217.34 3179.63 2787.61 2599.91 2105.89 2100.04 2053.01 2005.47 1965.46 1924.06
threshold=0.3739917371630927 34.050000000000004 5.2500000000000009 4.9750000000000005 5.6650000000000009 21.350000000000005 4.5000000000000009 5.535000000000001 1.0000000180025095e-35 0.37500000000000006 27.650000000000002 3.6750000000000003 0.027238402488075106 4.5750000000000011 0.047015244813936159 2.6500000000000008 2.5500000000000003 56.750000000000007 11.15 1.0000000180025095e-35 32.750000000000007 4.5150000000000006 6.6850000000000014 0.020053480416021303 7.3500000000000005 0.056943324042849755 6.8050000000000006 51.650000000000013 6.3150000000000004 600.50000000000011
decision_type=10 10 8 2 2 8 8 2 2 8 10 2 10 2 2 8 2 10 2 2 10 2 2 8 2 2 10 10 2 8
left_child=1 2 7 6 9 8 29 15 12 -2 22 -8 -3 -11 16 -1 -7 -6 -13 23 -20 -14 24 -12 -5 -17 -9 -18 -23 -4
right_child=4 5 3 10 17 14 11 26 -10 13 19 18 21 -15 -16 25 27 -19 20 -21 -22 28 -24 -25 -26 -27 -28 -29 -30 -31
leaf_value=-0.058299335711965189 0.050105702546685053 -0.011314506238000552 -0.0011285985971081853 -0.010569082365856986 0.053377183388517761 0.021826825635188157 -0.044421211304760955 -0.026685441191615939 0.011355380253485784 -0.0047235122631111041 -0.024159500150227511 -0.036226623670428608 -0.020627466944703424 0.033329661376902277 0.023029406818489414 -0.043824796213682224 0.003347719340151282 0.067697728553286055 -0.01221478738789606 0.000867640459799444 -0.029107238664247716 0.00060406946927260953 0.016928344268591512 -0.0099717300184399837 0.0040594987205171745 -0.021902930881142778 0.012156558549846848 0.012731612134778057 0.011827521724913248 -0.017269025383500478
leaf_weight=46267.464422199409 52650.684230115265 104660.30611581355 38810.339798135683 45003.500507226214 73779.088200200349 69514.923761535436 44484.142914926633 38239.84920753818 106678.48844309524 9472.6685816533864 63073.335149738006 53523.600391204469 14277.932572985068 34889.087170917541 100588.62455857545 45682.363845762331 114115.09801389463 133044.45697936788 60774.989110779483 39298.154589619488 52568.073648902588 135400.01813390106 22475.866864038631 66161.06547548715 54269.411471944302 14358.581673771143 3734.1573118055239 113631.29780082218 54793.424494540319 35220.34159296751
leaf_count=367698 90487 334291 119446 157430 135855 134187 214137 195234 231801 18309 289071 262832 44373 59669 171028 290720 246346 256167 184481 114204 241549 327188 54802 217632 132792 68578 13934 202405 120246 125296
internal_value=0.00432999 -0.00567616 -0.0205164 -0.0153976 0.0549676 0.00752779 -0.0239662 -0.0403887 0.00111238 0.0387187 -0.00697366 -0.0292759 -0.00242238 0.0252041 0.0142328 -0.0471635 0.0112562 0.0625892 -0.0252384 -0.012754 -0.0200494 0.00212912 0.00102786 -0.0168961 -0.00257209 -0.0385823 -0.0232299 0.0080297 0.00383747 -0.00880746
internal_weight=1.84144e+06 1.53761e+06 723945 575663 303836 813660 285381 148282 415810 97012.4 290281 211351 309132 44361.8 397850 106308 297261 206824 166867 168533 113343 204471 121749 129234 99272.9 60040.9 41974 227746 190193 74030.7
internal_count=5422188 4861701 3049836 2113672 560487 1811865 1147741 936164 1057899 168465 965931 902999 826098 77978 753966 726996 582938 392022 688862 620907 426030 491807 345024 506703 290222 359298 209168 448751 447434 244742
is_linear=0
shrinkage=0.05


Tree=4
num_leaves=31
num_cat=0
split_feature=27 12 4 10 4 30 4 21 34 33 30 2 4 4 4 20 33 21 10 12 15 31 4 9 4 33 32 31 30 12
split_gain=313884 99925.7 20265.3 18968.8 12517.9 10314.1 7296.1 7149.59 6330.84 5554.44 5533.09 5434.78 4328.21 3642.68 3593.98 3559.47 3547.72 3892.79 3432.18 2930.46 2711.26 2424.27 2369.54 2041.33 1898.72 1837.05 1748.13 1683.34 1648.41 1495.64
threshold=0.3739917371630927 11.250000000000002 4.1350000000000007 40.050000000000004 5.6650000000000009 0.006832039208896851 5.9350000000000014 7.0000000000000009 3.5000000000000004 0.21455584513576956 0.045859687096768506 0.37500000000000006 4.5750000000000011 6.535000000000001 5.2750000000000012 6.3850000000000007 0.087976917884729361 16.500000000000004 53.750000000000007 55.350000000000001 13.500000000000002 36.350000000000001 2.8850000000000002 543.50000000000011 3.7650000000000001 0.21455584513576956 2.1551386244468018 25.350000000000005 0.024729470657941902 1.9500000000000002
decision_type=10 10 2 10 2 8 2 2 8 2 8 8 2 2 2 10 2 2 10 10 2 10 2 10 2 2 10 10 10 10
left_child=1 2 7 8 11 15 16 29 -3 10 18 -2 -13 24 -10 23 17 28 -5 -6 -8 -16 -9 -4 -12 -24 -15 -17 -7 -1
right_child=4 3 5 9 19 6 20 22 14 -11 13 12 -14 26 21 27 -18 -19 -20 -21 -22 -23 25 -25 -26 -27 -28 -29 -30 -31
leaf_value=-0.064076644297441365 0.049369604214854229 0.0073375674284193578 -0.022060217029129622 0.00045364314699995078 0.05160439892386183 -0.023824412510087923 0.014974355355147809 -0.050848981669747495 -0.015142737166489832 0.019779791932321805 -0.042441514778920823 -0.0057451219475899134 0.033269148302686867 0.031260437994361789 0.0027769152544757317 0.0051938779300749662 -0.0019320449138337658 0.0022250289266878254 0.012404885306365373 0.065038988428680222 -0.006048327300759551 -0.0098500273211914059 -0.0308080807581269 -0.038463961778242482 0.010143674224323171 -0.0092238989937666726 0.014253683370286461 -0.024103653007447733 -0.011308976223402047 -0.045790747388591284
leaf_weight=23262.357198641635 47507.508376706392 89251.822429768741 26956.083776927087 205333.27001662925 59700.579578939825 126795.19819461647 28859.520132191479 12754.656364476308 106670.89098056126 129119.57795680501 1751.8915902357548 9177.0568729527295 31543.972938071936 39725.14702328667 80589.945780690759 9369.9948891326785 38621.686929621734 19893.913404248655 84917.779576219618 126808.0229300335 32731.049568027258 71948.995736574754 66347.232915105298 63980.700606551487 85267.788233153522 11578.382246552035 24385.73910450004 10283.921415868215 33197.974362551235 21533.750209144782
leaf_count=209950 90487 224271 149421 551002 122323 598259 87378 77511 369971 247098 5124 18309 59669 66288 203849 33670 131009 48652 155763 269699 122138 255435 328988 406298 168637 44324 48090 53232 122344 152999
internal_value=0.00440868 -0.0049048 -0.0222805 0.00504393 0.053398 -0.0165022 -0.0113975 -0.0389441 -0.00414768 0.0106582 0.00798976 0.0378805 0.0244767 0.0157479 -0.00810231 -0.0294312 -0.0156818 -0.0186339 0.00395018 0.0607386 0.00380228 -0.00317891 -0.030871 -0.0336015 0.00908502 -0.027601 0.0247916 -0.0101361 -0.0212275 -0.0552865
internal_weight=1.71987e+06 1.44513e+06 526166 918963 274737 390690 280099 135476 348462 570501 441382 88228.5 40721 151131 259210 110591 218509 179887 290251 186509 61590.6 152539 90680.3 90936.8 87019.7 77925.6 64110.9 19653.9 159993 44796.1
internal_count=5422188 4861701 2566173 2295528 560487 1752401 1109780 813772 1053526 1242002 994904 168465 77978 288139 829255 642621 900264 769255 706765 392022 209516 459284 450823 555719 173761 373312 114378 86902 720603 362949
is_linear=0
shrinkage=0.05


Tree=5
num_leaves=31
num_cat=0
split_feature=27 10 4 10 4 30 21 34 4 2 4 4 20 25 34 34 31 34 31 4 12 31 21 21 30 4 25 12 25 9
split_gain=267206 84702.6 17938.3 15385.9 10638.5 8495 7966.25 6500.67 5548.79 4858.84 4678.66 4102.6 3942.44 3208.38 3649.37 3002.81 2763.19 2760.23 2770.61 2562.44 2362.17 2359.32 1881.77 1879.31 1835.42 1815.86 1777.65 1702.53 1687.9 1676.83
threshold=0.3739917371630927 30.550000000000004 4.3350000000000009 44.850000000000001 5.6650000000000009 0.009394521137427201 7.3500000000000005 4.5000000000000009 6.0950000000000006 0.37500000000000006 5.5150000000000006 4.5750000000000011 5.955000000000001 2.5500000000000003 4.5000000000000009 5.5000000000000009 38.95000000000001 3.5000000000000004 11.15 3.7050000000000005 55.350000000000001 23.750000000000004 4.5500000000000007 30.800000000000004 0.05282577045891141 2.8850000000000002 2.2250000000000005 2.9500000000000006 2.291666666666667 800.50000000000011
decision_type=10 10 2 8 2 8 2 8 2 8 2 2 8 2 8 8 10 8 10 2 10 10 2 2 8 2 2 10 2 8
left_child=1 2 6 7 9 12 27 29 17 -2 25 -11 22 -5 -15 -8 28 -7 -19 -16 -6 -17 -4 -10 -21 -9 -14 -1 -12 -3
right_child=4 3 5 13 20 8 15 10 23 11 16 -13 26 14 19 21 -18 18 -20 24 -22 -23 -24 -25 -26 -27 -28 -29 -30 -31
leaf_value=-0.057482675150411 0.048251575717820371 0.012415628000071672 -0.037487868380763241 0.021297154825009608 0.050269024800824118 0.00070121624511442437 -0.014365712000491318 -0.053987828769579561 0.004996778580786003 -0.0060055595114109298 0.019629637497478189 0.03287065835907671 0.0066872095689892571 0.01807499849185679 -0.031347524195146158 -0.022319243298583948 -0.0062936436324742065 -0.003864352675887796 -0.018888536124184643 0.0044776659307683188 0.062866696114891402 -0.039597785358080007 -0.022446989348060373 0.0464347694597326 0.016199617830774407 -0.011226823429694159 -0.01742748821157426 -0.039039361299196454 0.0029459984920892301 0.0020672473142517188
leaf_weight=30097.835873282049 43661.206159181893 85907.568424817175 44330.916382080875 89805.044067300856 54738.548790786415 35786.730488070287 36708.779767517932 2532.7517816610634 42482.129426476546 8857.9040733575821 18931.450484633446 29016.701003208756 10062.366055719554 102667.22889550403 4399.9423650838435 36569.728341890499 81133.811080897227 42458.87329413183 110662.97528239433 140589.30552781746 116208.71684167534 42972.030997175723 39168.665858830791 2924.5106363110244 43797.91700377129 125664.81446046848 31775.439531058073 21416.503609078471 76104.177283784375 71915.530202735215
leaf_count=295049 90487 214190 324067 196413 122323 120652 169737 10651 137894 18309 44260 59669 39823 201965 10679 145128 284150 119833 519833 327764 269699 269890 216627 4092 81180 418532 165844 152310 191288 199850
internal_value=0.00447645 -0.00422928 -0.0199464 0.00559879 0.0517446 -0.0136486 -0.0334477 -0.000534624 -0.00802838 0.0368835 -0.0048046 0.0237785 -0.0241553 0.0130342 0.0104881 -0.0261947 0.000483586 -0.0118006 -0.0147225 0.00636216 0.0588328 -0.0316539 -0.0304324 0.00766568 0.00726201 -0.0120716 -0.0116277 -0.0498151 0.00626944 0.00770016
internal_weight=1.62335e+06 1.37087e+06 527417 843450 252483 359653 167765 462190 234315 81535.8 304367 37874.6 125337 381259 291454 116251 176169 188909 153122 188787 170947 79541.8 83499.6 45406.6 184387 128198 41837.8 51514.3 95035.6 157823
internal_count=5422188 4861701 2680779 2180922 560487 1648665 1032114 1362921 902304 168465 948881 77978 746361 818001 621588 584755 519698 760318 639666 419623 392022 415018 540694 141986 408944 429183 205667 447359 235548 414040
is_linear=0
shrinkage=0.05


Tree=6
num_leaves=31
num_cat=0
split_feature=27 12 4 10 4 21 30 34 4 2 4 34 4 34 4 31 20 21 30 34 31 12 9 4 12 4 20 9 4 4
split_gain=229946 73401.2 19269.2 9672.18 9254.87 8981.44 6993.36 5582.46 4941.12 4420.88 4046.3 3863.14 3758.17 3380.32 2769.66 2701.56 2630.8 2418.37 2227.03 2491.84 2025.63 2025.01 1896.92 1819.99 1803.11 1534.32 1528.54 1409.85 1383.74 1364.73
threshold=0.3739917371630927 13.65 4.5750000000000011 48.350000000000001 5.6550000000000011 7.0000000000000009 0.0083054375741279021 4.5000000000000009 5.6350000000000007 0.37500000000000006 6.3850000000000007 5.5000000000000009 4.5750000000000011 4.5000000000000009 2.8850000000000002 38.95000000000001 6.3850000000000007 17.700000000000003 0.05282577045891141 5.5000000000000009 26.150000000000002 55.350000000000001 548.50000000000011 4.8750000000000009 2.9500000000000006 6.7250000000000005 6.7950000000000008 863.50000000000011 3.3950000000000005 5.6650000000000009
decision_type=10 10 2 8 2 2 8 8 2 8 2 8 2 8 2 10 10 2 10 8 10 10 10 2 10 2 8 10 2 2
left_child=1 2 5 7 9 24 16 27 28 -2 13 -7 -11 -8 -13 25 22 -15 19 -5 -16 -6 -4 -21 -1 -10 -12 -3 -9 -20
right_child=4 3 6 18 21 11 10 8 15 12 26 14 -14 17 20 -17 -18 -19 29 23 -22 -23 -24 -25 -26 -27 -28 -29 -30 -31
leaf_value=-0.053497913269895253 0.047002040725113478 0.014640537648217542 -0.012871493733242565 0.018603509668491534 0.048768874239863286 -0.011477437209028607 0.0015600824906921574 -0.034951993346720403 0.0063367650412089237 -0.0061089248303355667 0.001587728063618896 -0.057063582901625234 0.031993350679308162 -0.014002535733850475 -0.018307512571092015 -0.0018870276247522208 -0.0059929559923911045 0.0073677592983330447 0.0021857834069841787 -0.0048125580590862391 -0.03279049609528794 0.060824249155277121 -0.030056188659805073 0.010662338572481195 -0.035782507346723134 0.021243198035685282 0.021345776163395988 0.0050280098001677757 -0.0078241149317706989 0.026330354803940931
leaf_weight=31712.075364237186 40137.816570650786 87019.22750632558 22286.986167403404 88860.529708699323 51402.051138713956 53122.03579281643 62597.993718137965 4892.7957992441952 65128.802417619154 8555.9361969269812 28733.990891005844 7620.8407779210247 26565.869131695479 148965.30709871836 46949.376448702067 93789.148858698085 22797.005585552193 14529.873254805803 6629.4816171750426 23905.396024790592 49699.424456920475 108073.36520635895 57461.426235486288 92592.755683392286 26255.60101662809 23488.339266525581 14846.480021502823 67915.901459178887 119721.84292864241 49943.345984542742
leaf_count=333714 89394 205862 127609 183805 123691 244122 218233 19063 156824 18309 99439 55433 58687 647560 181161 311154 108684 33487 13453 47273 313348 270406 399552 220202 193961 54126 39622 185118 377683 91213
internal_value=0.00454198 -0.00361558 -0.016745 0.00704155 0.0501183 -0.0286488 -0.00985766 0.00268954 -0.00121503 0.0356662 -0.00563144 -0.0224521 0.0227113 -0.00832038 -0.0280433 0.00402777 -0.0209718 -0.0121034 0.014717 0.0122972 -0.0257551 0.0569386 -0.0252536 0.00748689 -0.045474 0.0102878 0.00831867 0.0104269 -0.00888925 0.023501
internal_weight=1.5462e+06 1.31147e+06 587578 723888 234735 215359 372219 461956 307021 75259.6 269674 157392 35121.8 226093 104270 182406 102545 163495 261932 205359 96648.8 159475 79748.4 116498 57967.7 88617.1 43580.5 154935 124615 56572.8
internal_count=5422188 4861701 2995925 1865776 560487 1321739 1674186 1309830 918850 166390 1038341 794064 76996 899280 549942 522104 635845 681047 555946 451280 494509 394097 527161 267475 527675 210950 139061 390980 396746 104666
is_linear=0
shrinkage=0.05


Tree=7
num_leaves=31
num_cat=0
split_feature=27 10 4 21 4 10 12 34 34 4 1 25 33 4 12 31 4 4 31 12 31 31 25 31 33 4 12 33 4 25
split_gain=199150 64959.1 18166.9 9155.23 8286.4 6466.44 6269.34 4820.08 4788.7 4483.93 4121.41 3750.12 3290.85 2993.19 2707 2636.27 2468.08 2344.59 2342.46 1867.26 1856.78 1588.05 1548.54 1511.17 1505.05 1461.67 1352.05 1328.77 1294.19 1187.28
threshold=0.3739917371630927 35.550000000000004 4.6750000000000007 7.0000000000000009 5.2750000000000012 50.150000000000013 6.5500000000000007 5.5000000000000009 5.5000000000000009 5.3550000000000013 7.3650000000000011 2.5500000000000003 1.0000000180025095e-35 6.3850000000000007 55.350000000000001 41.150000000000013 3.4450000000000007 3.7050000000000005 26.550000000000004 2.9500000000000006 51.45000000000001 26.350000000000005 2.3666666666666667 26.750000000000004 0.3227486121839433 6.4150000000000009 4.9500000000000011 0.84182029989947071 3.2850000000000006 3.2250000000000005
decision_type=10 10 2 2 2 10 8 8 8 2 8 2 2 2 10 10 2 2 10 10 8 10 2 10 2 2 10 2 2 2
left_child=1 2 3 19 10 8 13 26 27 28 -2 25 18 -4 -6 22 -9 -12 -13 -1 -7 -18 -11 -15 29 -8 -5 -3 -10 -22
right_child=4 5 6 7 14 20 11 16 9 15 17 12 -14 23 -16 -17 21 -19 -20 -21 24 -23 -24 -25 -26 -27 -28 -29 -30 -31
leaf_value=-0.050725042881478534 0.042960736036426979 0.0084054275732287371 -0.025039808451487962 -0.026613661616007978 0.045476548846780519 0.026756568782223218 0.00092905046132172589 -0.041657719874767615 -0.043233511955365567 0.022417070006765644 -0.037636506097043498 -0.0031698114779535221 0.0048000740239698796 0.0061217311690807373 0.058209576544428876 -0.001520700102156594 -0.015928597007170461 0.017983431932691304 -0.014527919603830318 -0.033030517954627067 0.017006057823758865 -0.02862591788897921 0.0069295810002975621 -0.022131192545735118 0.022582942647666603 0.017068886820854112 -0.0056363207172232229 0.018121847050890785 -0.0089827695085317096 0.0074030466541359198
leaf_weight=30999.41202892689 23644.035242475569 128444.33158892393 64185.267813487444 8932.3477543415502 67681.027962276712 31302.77167795971 38440.932209308259 19956.801663472783 2875.626675227657 20821.478791017085 2125.2209693081677 74988.847518598661 46457.161825506948 14081.100537063554 108909.45466893725 92545.613363379613 48499.982730666175 17469.734678965062 115023.09868157748 28725.629987450782 52377.611447613686 50024.717196512036 71782.984558558092 7129.0761880641803 36160.183453978039 22088.228949766606 54839.826102418825 48462.562778459862 67445.34276833944 83497.23426677566
leaf_count=350685 55615 356334 457320 61686 169273 63564 150522 131450 12008 48011 5548 239155 153371 59776 289271 312106 181194 40780 540899 219681 121864 316846 174791 47443 71709 66277 227475 109785 207510 180239
internal_value=0.0046123 -0.00304867 -0.0145038 -0.0252253 0.0485259 0.00820204 -0.0077192 -0.0196578 0.00474386 0.000365126 0.0289078 -0.00428627 -0.00712883 -0.0196587 0.0533294 0.00444746 -0.0256234 0.011951 -0.0100454 -0.0422146 0.0155555 -0.0223755 0.0104118 -0.00337452 0.0135174 0.00681878 -0.00857454 0.0110672 -0.0103834 0.0111049
internal_weight=1.47992e+06 1.26009e+06 624372 241979 219829 635716 382394 182254 432378 255471 43239 296998 236469 85395.4 176590 185150 118482 19595 190012 59725 203338 98524.7 92604.5 21210.2 172035 60529.2 63772.2 176907 70321 135875
internal_count=5422188 4861701 3203780 1489017 560487 1657921 1714763 918651 1220545 754426 101943 1150224 933425 564539 458544 534908 629490 46328 780054 570366 437376 498040 222802 107219 373812 216799 289161 466119 219518 302103
is_linear=0
shrinkage=0.05


Tree=8
num_leaves=31
num_cat=0
split_feature=27 12 4 12 4 21 34 20 1 34 4 34 4 4 12 4 30 4 9 25 4 25 25 3 32 31 13 9 27 4
split_gain=173361 57381 13060.5 11853.9 7814.04 7753.1 5718.21 4441.01 3914.17 3852.94 3644.03 3784.15 3408.29 2642.98 2354.37 2343.61 2327.72 2037.89 1964.9 1853.07 1825.37 1739.28 1500.2 1628.68 1453.01 1550.9 1397.72 1396.29 1144.7 1116.3
threshold=0.3739917371630927 11.250000000000002 5.1350000000000007 19.250000000000004 5.2750000000000012 7.0000000000000009 5.5000000000000009 6.6350000000000007 7.3650000000000011 4.5000000000000009 6.5250000000000012 5.5000000000000009 5.1150000000000011 3.8550000000000004 55.350000000000001 4.995000000000001 0.0059608105682990515 3.1550000000000007 828.50000000000011 2.0833333333333335 4.0150000000000006 2.5500000000000003 2.183333333333334 2.5000000000000004 2.177133301481128 74.850000000000009 0.18500000000000003 648.50000000000011 0.29407981514542769 2.3650000000000007
decision_type=10 10 2 10 2 2 8 8 8 8 2 8 2 2 10 2 10 2 8 2 2 2 2 2 10 10 8 10 10 2
left_child=1 2 5 6 8 17 18 16 -2 -7 11 28 -8 29 -6 -13 -4 -1 -3 -12 -10 -14 -9 -24 25 -21 -19 -18 -5 -11
right_child=4 3 7 10 14 9 12 22 20 13 19 15 21 -15 -16 -17 27 26 -20 24 -22 -23 23 -25 -26 -27 -28 -29 -30 -31
leaf_value=-0.055971631451404436 0.0416903085542564 0.0115771442037369 -0.021805163502013371 0.012201008300967773 0.044246160287459452 -0.0066834089631724993 -0.015679434486614165 0.022443094638779214 -0.023607637041841881 -0.062039033212007128 0.029565202125878404 -0.0059830814871538844 0.0072033460722223611 -0.018643026119647212 0.056498563932339263 0.0071391101429638532 0.0019986551713190455 -0.023407001136804925 2.5895782828668176e-05 0.024692722141381143 0.017812883257828645 -0.0050311784562101268 0.017205038842735724 -0.005197078480542263 0.0075915116511623432 0.0075059032043858168 -0.039150373474835999 -0.011489773006247254 0.023681832461567211 -0.031796712659946283
leaf_weight=12733.174059564481 22411.920604132116 85649.609870980494 39845.434155785944 85508.599978920072 63620.837288342416 48415.22056615958 64693.632022655569 10642.396377389319 3196.203835433349 3357.9305126657709 28338.95468672365 48261.775868225843 38409.43479298614 89746.932131805457 102176.22987786308 115355.92595531046 27918.209350893274 20783.438771686982 64567.970456845127 45891.379012085497 15850.854586660862 119204.69558385573 11419.539159769192 28022.851955317892 39497.518321757205 18384.386480523273 43829.864284850191 61344.271499990486 29100.055989384651 33418.802975955419
leaf_count=162353 55615 253012 291447 200316 169273 227994 274373 32101 8462 31714 69929 117924 123129 457667 289271 284308 119516 162265 222328 102778 37866 415892 26499 123383 121190 64548 408162 311497 45801 211575
internal_value=0.00467782 -0.00253558 -0.0171758 0.00553342 0.0469421 -0.0245071 -0.000923892 -0.00685399 0.0275273 -0.0186789 0.0113957 0.00814883 -0.00601609 -0.023269 0.051797 0.0032685 -0.0117566 -0.0376892 0.00661208 0.0182335 0.0108623 -0.00204971 0.00578389 0.00128888 0.015139 0.0197769 -0.0340864 -0.00727106 0.0151161 -0.034558
internal_weight=1.4216e+06 1.21434e+06 431478 782864 207256 252285 372525 179193 41459 174939 410339 278226 222308 126524 165797 163618 129108 77346.5 150218 132112 19047.1 157614 50084.8 39442.4 103773 64275.8 64613.3 89262.5 114609 36776.7
internal_count=5422188 4861701 2566173 2295528 560487 1661730 1288734 904443 101943 928950 1006794 648349 813394 700956 458544 402232 722460 732780 475340 358445 46328 539021 181983 149882 288516 167326 570427 431013 246117 243289
is_linear=0
shrinkage=0.05


Tree=9
num_leaves=31
num_cat=0
split_feature=27 10 10 4 4 12 34 34 20 1 33 4 4 31 12 31 38 4 4 33 30 25 27 31 4 32 31 30 33 21
split_gain=151338 50782.7 11819.2 11403.7 7365.49 6439.9 5323.82 4508.12 3755.1 3688.84 3335.89 3276.31 3062.75 2366.35 2140.66 2140.05 1907.93 1623.76 1546.84 1496.58 1485.98 1464.54 1434.78 1412.66 1318.93 1314.33 1922.26 1200.13 1087.63 1030.76
threshold=0.3739917371630927 27.950000000000003 42.45000000000001 5.1950000000000012 5.2750000000000012 3.1500000000000008 5.5000000000000009 4.5000000000000009 6.3750000000000009 7.3650000000000011 0.027338624459890704 5.8950000000000005 6.1350000000000007 8.5500000000000025 55.350000000000001 38.95000000000001 1.7450000000000006 3.7650000000000001 4.5750000000000011 0.54566005055175626 0.0059608105682990515 1.9166666666666667 0.29138527456365465 21.250000000000004 3.9450000000000007 1.3294768836093918 74.850000000000009 0.042739136488658104 0.60439788521550064 8.1500000000000004
decision_type=10 10 10 2 2 8 8 8 8 8 2 2 2 10 10 10 2 2 2 2 10 2 10 10 2 8 10 10 2 2
left_child=1 3 6 5 9 -1 19 -7 20 -2 12 24 16 -9 -6 -14 22 -15 -11 -3 -5 -13 -4 -10 -8 26 -17 -26 -22 -19
right_child=4 2 10 8 14 7 11 13 23 18 -12 21 15 17 -16 25 -18 29 -20 -21 28 -23 -24 -25 27 -27 -28 -29 -30 -31
leaf_value=-0.044564079828372523 0.040378631439973812 0.0022036060930050445 0.0012841314557411609 -0.021274127588627446 0.042887186109891728 -0.0074262723748595525 -0.024940994327733446 -0.015765725822683353 0.012495477546604059 -0.0074101779625624824 0.018865573812381662 0.020272148375382257 0.023204324723369224 -0.040962508207827736 0.054909616471546296 0.022130924177687819 -0.027113012398494146 -0.032829629886797662 0.021948487603653793 0.012191901853391095 -0.010396740896556431 -0.00042707981735078316 0.011871482229811867 -0.0034030926007816726 -0.012337842289986314 0.0032798353395069239 0.0033622121485681979 -0.0022858230009087164 0.0093910104253808798 -0.021242285533861423
leaf_weight=32352.656395337312 21348.974873200059 96989.899392597377 101981.48566931486 30993.717447375413 60208.998569644988 49499.970787371974 14117.096969552338 49127.818793621846 26250.180320842192 7612.8999026119709 105149.82061900292 9616.2024331493303 42274.407573552802 22540.198525782209 96158.460236981511 34877.551742838696 4897.0626817736775 31548.701595422113 10925.112580891699 61144.22984448541 55115.134310389869 76742.75750386063 46632.572571918368 29871.995200566016 85739.26643810235 43743.796758842655 22406.246081663296 45425.375047714449 7945.3797600641847 49002.752591989003
leaf_count=404358 55615 356133 273642 246297 169273 262033 66962 207563 74473 18029 239706 27724 97120 200459 289271 79921 16364 261106 28299 173911 290295 275665 85750 144168 377008 144547 85199 141335 32343 297619
internal_value=0.00474193 -0.00204133 0.00519707 -0.0169559 0.0453882 -0.0238553 -0.00100676 -0.020534 -0.00620214 0.0262095 0.0112128 -0.0058349 0.00850168 -0.0247964 0.0502804 0.0137586 0.00359441 -0.0291 0.00989193 0.00606569 -0.0123096 0.00187781 0.00460626 0.00403319 -0.0104195 0.00980603 0.0147896 -0.00885659 -0.00790356 -0.0257806
internal_weight=1.37224e+06 1.17599e+06 791738 384249 196254 234072 389775 201719 150176 39887 401963 231641 296813 152219 156367 143302 153511 103092 18538 158134 94054.2 86359 148614 56122.2 145282 101028 57283.8 131165 63060.5 80551.5
internal_count=5422188 4861701 2440987 2420714 560487 1633138 1418738 1228780 787576 101943 1022249 888694 782543 966747 458544 406787 375756 759184 46328 530044 568935 303389 359392 218641 585305 309667 165120 518343 322638 558725
is_linear=0
shrinkage=0.05


Tree=10
num_leaves=31
num_cat=0
split_feature=27 10 4 4 4 34 4 21 3 33 2 4 30 34 12 12 30 12 25 12 4 4 20 25 4 4 33 31 4 5
split_gain=132613 45456 12300.9 7002.61 6874.31 6508.58 4849.99 4929.93 4153.1 3519.18 3433.54 3119.27 2651.47 2113.08 2109.7 1973.81 1825.11 1784.79 1687.64 1424.72 1410.86 1395.85 1335.89 1286.34 1161.87 1068.66 1019.31 996.343 940.608 932.219
threshold=0.3739917371630927 32.850000000000001 4.2550000000000008 6.4150000000000009 5.2750000000000012 5.5000000000000009 6.3850000000000007 4.5500000000000007 4.5000000000000009 0.077991826884803675 0.40500000000000008 4.5550000000000006 0.036663953647597558 5.5000000000000009 18.750000000000004 57.95000000000001 0.024729470657941902 26.450000000000003 2.5500000000000003 2.9500000000000006 3.4850000000000008 3.0750000000000006 5.5650000000000004 2.0833333333333335 2.6450000000000005 4.9750000000000005 0.16951587590520723 23.250000000000004 5.5550000000000006 40.885000000000012
decision_type=10 10 2 2 2 8 2 2 2 2 8 2 10 8 10 10 8 8 2 10 2 2 10 2 2 2 2 10 2 2
left_child=1 2 8 5 10 17 7 22 13 16 -2 21 26 -1 -13 -6 -9 25 -8 -10 -12 -7 -4 -14 -15 -3 -5 -20 -18 -16
right_child=4 3 6 12 15 11 18 9 19 -11 20 14 23 24 29 -17 28 -19 27 -21 -22 -23 -24 -25 -26 -27 -28 -29 -30 -31
leaf_value=-0.0090764518339279936 0.039266750043311122 0.0010209328655144776 -0.029690117310820524 0.005362505703953066 0.042524560101762011 -0.047238955548285388 0.014523888093411128 -0.016221101690262741 -0.048369476036840997 0.0045943382480529704 -0.039799028699829098 -0.0044980053592194235 0.030444323377690541 -0.054633421864929345 0.0032724203550860854 0.054119639105960196 -0.0089779428075174219 0.019096244032557039 0.0081518778745449608 -0.029735765051881503 0.013272329499188435 -0.011304118013378515 -0.014699590472315869 0.017252308440451693 -0.024049604901683272 0.010529223114710759 0.017737351907675013 -0.0085652368766685107 0.0024805291960920805 0.014666570570546359
leaf_weight=28072.976214267313 20200.346790879965 40946.904188751243 37152.667498051422 66134.383158651181 67697.157454555854 2895.5033854180947 24186.62494623661 85718.166232193355 21898.948400497669 45855.060773800593 1352.7323297001421 99837.392315006815 23742.42901523225 3291.8020827365108 104479.51137545239 80164.69135915488 75165.771186700091 46766.501228190027 14179.09001730755 19298.067360832822 16865.281104192138 40517.223750091158 24771.07092696894 83351.87590565905 54831.277480414603 106183.38430146035 22235.403861016035 23998.822620787192 23512.332664212678 21675.403541170061
leaf_count=148209 55214 124774 331408 256254 202873 13823 85983 540255 305618 192010 4176 365166 54940 31014 272797 255671 319469 83155 52631 177662 42553 132500 174630 211232 329685 317383 68944 138348 79491 54320
internal_value=0.00480086 -0.00158661 -0.0132561 0.00695045 0.0439149 0.00360206 -0.00846776 -0.0111696 -0.0265823 -0.00780139 0.0250715 -0.00142557 0.014887 -0.020341 0.00093249 0.0488109 -0.0108839 0.0105876 0.00419011 -0.0396408 0.00933165 -0.0137009 -0.0236935 0.0201769 -0.0257817 0.00788303 0.00847624 -0.00235658 -0.0062477 0.00523012
internal_weight=1.32698e+06 1.1407e+06 481933 658766 186280 463302 354540 292175 127393 230251 38418.4 269405 195464 86196.1 225992 147862 184396 193897 62364.5 41197 18218 43412.7 61923.7 107094 58123.1 147130 88369.8 38177.9 98678.1 126155
internal_count=5422188 4861701 2906413 1955288 560487 1363918 1914225 1637263 992188 1131225 101943 838606 591370 508908 692283 458544 939215 525312 276962 483280 46729 146323 506038 266172 360699 442157 325198 190979 398960 327117
is_linear=0
shrinkage=0.05


Tree=11
num_leaves=31
num_cat=0
split_feature=27 10 4 4 20 34 12 25 12 2 34 4 2 4 12 32 31 4 9 25 31 21 9 4 4 9 33 20 9 32
split_gain=116473 40691.6 13079.3 6609.89 5179.18 5551.21 5157.61 4135.5 3900.73 3320.53 3101.3 2427.6 2394.92 2251.5 1824.54 1773.83 2180.89 1746.31 1528.15 1496.65 1489.49 1417.71 1299.5 1199.8 1150.1 1137.24 1125.59 1098.78 1095.2 1067.24
threshold=0.3739917371630927 35.550000000000004 4.495000000000001 5.2750000000000012 6.535000000000001 5.5000000000000009 6.5500000000000007 2.5500000000000003 8.1500000000000004 0.37500000000000006 5.5000000000000009 4.7150000000000007 0.59500000000000008 2.8850000000000002 55.350000000000001 1.2491991741683981 65.750000000000014 6.9050000000000011 483.50000000000006 2.0833333333333335 32.050000000000004 17.700000000000003 828.50000000000011 4.3750000000000009 3.4450000000000007 912.50000000000011 0.13041013273934607 5.5250000000000012 591.50000000000011 2.0681638092493881
decision_type=10 10 2 2 10 8 10 2 8 8 8 2 8 2 10 10 10 2 10 2 10 2 10 2 2 10 2 10 10 10
left_child=1 2 6 9 5 25 13 17 18 -2 22 24 28 -1 -5 16 27 -4 -9 -6 -12 26 -10 -11 -7 -3 -15 -13 -8 -21
right_child=3 4 7 14 19 11 12 8 10 23 20 15 -14 21 -16 -17 -18 -19 -20 29 -22 -23 -24 -25 -26 -27 -28 -29 -30 -31
leaf_value=-0.049253686603837304 0.038181573356214603 0.014971645582065651 0.0011922428280324905 0.040263810211767899 0.027427050350674245 -0.035035083209904637 0.0036482113986756829 -0.0046570565603928716 0.010351690928845492 -0.011474217292805932 -0.0039613160480711377 0.0043702293216700437 -0.021717075655364685 -0.033048236132447451 0.051963755216172018 -0.0033241311819744283 -0.0053171102903913428 0.020757065318588772 -0.020372207028904452 0.018948859010154098 -0.014270556826860374 -0.010771363379757905 -0.0043398549890057017 0.016724551650542027 -0.0072362598663498938 0.0065044574090867115 -0.013775957155182414 0.014253329313350894 -0.012594775181711574 0.0083441956431300895
leaf_weight=14001.515580954961 19244.638607535511 126463.61631985288 60838.369998873677 54440.586937624961 27931.689379534684 4115.4190789600834 19459.061142182443 19796.321766702924 39096.038143162616 5374.3807655740529 77894.823051670566 53561.95753174834 44223.752074175514 53027.473319443408 85896.614683134481 71435.703011505306 31521.836868159473 14036.86031569168 70771.730817953125 53899.441339763813 63679.431885788683 10943.406320190988 24473.782783205621 12652.955927282572 38790.896068162285 57772.815027122386 8839.1301840217784 59214.256448427215 22236.928764198907 42379.075413069688
leaf_count=193009 54991 321916 295469 169273 77164 17737 90327 127811 149023 14045 278904 126186 269037 494134 289271 256254 134316 45178 551885 154354 351194 44915 112491 32907 118798 171609 73008 134782 127395 144805
internal_value=0.00485899 -0.00115435 -0.010933 0.0424541 0.00821446 0.00568392 -0.022296 -0.00563667 -0.00829448 0.0237374 -0.00447885 0.000959351 -0.0136114 -0.0308914 0.047425 0.00311964 0.00630967 0.00486006 -0.0169372 0.0172372 -0.00859836 -0.0273603 0.00469558 0.00831782 -0.00990262 0.0123165 -0.0302947 0.00955945 -0.00501435 0.014281
internal_weight=1.28801e+06 1.11041e+06 543319 177609 567087 442877 172731 370587 295712 37272 205144 258640 85919.7 86811.5 140337 215734 144298 74875.2 90568.1 124210 141574 72810 63569.8 18027.3 42906.3 184236 61866.6 112776 41696 96278.5
internal_count=5422188 4861701 3203780 560487 1657921 1281598 1291825 1911955 1571308 101943 891612 788073 486759 805066 458544 651538 395284 340647 679696 376323 630098 612057 261514 46952 136535 493525 567142 260968 217722 299159
is_linear=0
shrinkage=0.05


Tree=12
num_leaves=31
num_cat=0
split_feature=27 12 4 4 2 4 12 34 1 20 33 30 27 4 15 32 20 31 30 31 4 9 4 25 3 4 9 25 20 32
split_gain=102836 35376.4 9920.36 8915.46 8196.19 7371.05 3862.34 3526.54 3255.97 2929.7 2623.19 2693.38 2391.12 2379.16 1848.23 1711.16 1693.95 1670.39 1525.03 1332.7 1270.99 1215.33 1163.72 1100.95 1124.07 1081.65 1050.84 1049.39 841.505 798.487
threshold=0.35332622436918654 9.9500000000000011 5.9750000000000005 4.9750000000000005 0.51500000000000012 5.2750000000000012 2.9500000000000006 5.5000000000000009 7.3750000000000009 6.3350000000000009 0.43033148291194584 0.040437640637834803 0.46706815571416854 4.4350000000000014 27.500000000000004 0.85949854890344979 6.6150000000000011 9.6500000000000004 0.027447172365052151 58.150000000000013 3.6450000000000005 548.50000000000011 2.8850000000000002 2.183333333333334 2.5000000000000004 3.7350000000000008 731.50000000000011 2.5500000000000003 5.035000000000001 0.71772624129841167
decision_type=10 10 2 2 8 2 8 8 8 8 2 8 10 2 2 10 8 10 8 10 2 8 2 2 2 2 8 2 10 10
left_child=1 3 4 6 14 8 -1 26 -2 21 11 27 -7 22 -3 19 -13 -9 -16 28 -10 -5 -6 -11 -25 -19 -8 -4 -15 -29
right_child=5 2 10 9 13 12 7 17 20 23 -12 16 -14 15 18 -17 -18 25 -20 -21 -22 -23 -24 24 -26 -27 -28 29 -30 -31
leaf_value=-0.041470710262165596 0.034366648014969088 0.012391232410630091 0.011323606283637724 -0.0011817866885008241 -0.048586408555645416 0.033339748662378654 -0.0030468345165969371 -0.016283171078117234 -0.034149219098481252 0.016249943008386461 0.021500601539670431 0.010672040532565189 0.048807644813416651 -0.0035834754205031228 -0.0072777393986295435 -0.01021029589542106 0.023118045186140048 -0.040569458725469361 0.0064664949616305423 -0.010354298619915187 0.010919676579676043 -0.014728529245101388 -0.014613445215799426 0.012190782717021342 -0.0054073261606787841 -0.025740518658024021 -0.020268736204734211 0.0075967448788760439 0.0064296704193588699 -0.0015350012958551952
leaf_weight=23291.085470611695 23728.764269752428 96302.528641347308 44848.666838096455 21796.129791867454 2674.7555356426165 32651.772206509486 32276.060473064426 38863.380273817573 1706.0088103991002 12211.597951303236 55663.71160317678 76352.222940613516 106407.51408062875 33548.355952902231 27708.256557709537 67469.53374279663 42587.969927730039 16177.361545654945 74308.553629121743 25112.852938661352 18836.676201490685 68870.22284268355 43764.628852483816 12444.875004372559 33501.128240801394 51269.69853087049 12207.836317093112 39880.641337033361 56018.509344076738 59885.387042577378
leaf_count=356291 63938 265275 164667 132118 17750 100200 193066 183894 5644 41557 156717 195761 368594 92931 136111 299156 108449 171611 253709 113346 47686 502018 188245 31942 172836 411338 94791 133361 140575 278611
internal_value=0.00492042 -0.00101291 0.00497072 -0.0148389 -1.47301e-05 0.0395188 -0.0225206 -0.0195937 0.0217501 -0.00585333 0.011638 0.00955502 0.0451757 -0.00646777 0.00742323 -0.00389213 0.0151285 -0.0245398 0.00273349 -0.000174967 0.00717684 -0.0114719 -0.0165702 0.00290588 -0.000640725 -0.0292973 -0.00777309 0.00497105 0.00267913 0.00211534
internal_weight=1.25237e+06 1.06904e+06 746127 322909 426908 183331 174085 150794 44271.4 148824 319219 263555 139059 228589 198319 182149 118940 106310 102017 114680 20542.7 90666.4 46439.4 58157.6 45946 67447.1 44483.9 144615 89566.9 99766
internal_count=5422188 4836126 2544664 2291462 1507098 586062 1410991 1054700 117268 880471 1037566 880849 468794 852003 655095 646008 304210 766843 389820 346852 53330 634136 205995 246335 204778 582949 287857 576639 233506 411972
is_linear=0
shrinkage=0.05


Tree=13
num_leaves=31
num_cat=0
split_feature=27 12 4 4 34 33 4 20 21 2 4 20 33 27 25 25 12 32 29 33 21 30 5 31 12 4 31 12 31 4
split_gain=90797.7 33375.5 11372.7 5861.67 5088.14 4838.31 4748.75 4417.85 3685.92 2980.34 2576.43 2547.15 1933.44 1875.08 1767.42 1735.47 1614.23 1445.64 1324.32 1244.11 1041.39 991.132 973.093 954.305 944.688 911.706 895.37 850.403 793.556 733.527
threshold=0.3739917371630927 14.550000000000002 4.0750000000000011 5.2750000000000012 4.5000000000000009 0.3658318964297545 5.5750000000000011 6.2350000000000012 8.1500000000000004 0.37500000000000006 2.5150000000000001 6.7650000000000006 0.06766649524510647 0.29259146341463421 1.9166666666666667 3.6333333333333337 57.95000000000001 0.93326686606846132 0.24249999999999997 0.9634632630157236 11.15 0.011176533266517902 37.935000000000009 73.050000000000011 7.0500000000000007 4.5950000000000006 32.750000000000007 4.1500000000000012 43.850000000000001 5.6350000000000007
decision_type=10 10 2 2 8 2 2 10 2 8 2 8 2 10 2 2 10 10 8 2 2 10 2 10 8 2 10 10 10 2
left_child=1 2 10 9 19 6 8 13 27 -2 -1 21 20 15 -9 22 -5 23 -10 -3 -12 -8 -6 29 -7 -11 -20 -4 -19 -16
right_child=3 4 5 16 7 24 11 14 18 25 12 -13 -14 -15 17 -17 -18 28 26 -21 -22 -23 -24 -25 -26 -27 -28 -29 -30 -31
leaf_value=-0.047820475339679647 0.036040209226055837 0.01222802392847922 -0.029803415256141552 0.03868025011077008 -0.00092271167413492605 -0.0034880258493926808 -0.011055368964873628 0.027552272067589735 -0.00089796885290097128 -0.0066821473680241427 -0.034257461344097552 0.010487258997043182 -0.0057464809372823004 0.010788993649339863 -0.00071243853637076456 -0.008687097284339888 0.049975067710091574 0.0099734256888162776 -0.007382840555468121 0.021289767360081688 -0.021269180012848225 -0.0012520288594276082 0.0083695846447578957 0.0058876796897751396 0.01012333402053305 0.016596784647707415 -0.016922571672451019 -0.018306375337206263 -0.0013894265489251762 0.023879849231868363
leaf_weight=11380.921406111913 17874.016412910074 139749.14400043944 27187.621595658362 58686.045263618231 102832.42606859934 17480.375730788335 43207.795512636192 16307.641219928861 39168.27703561401 7188.2344165351242 24258.589878375875 34083.617495127022 14322.122163951863 37882.48198588565 3386.3245939956978 57336.914866683073 68623.525526962243 34447.98759922199 53625.842296893243 51959.88550275797 42420.038334776182 63929.677961676847 38806.041350876912 14537.184472647496 47081.608656615485 10137.899625103921 45436.431461221538 39381.92146818433 27737.580694065429 28995.647039085627
leaf_count=169714 54991 396904 295037 202873 350900 130036 318282 46960 210537 18804 285221 131564 94185 78762 9678 200417 255671 109335 202651 129832 277994 282808 127845 61593 177695 28148 283385 302635 117162 70569
internal_value=0.0049807 -0.00036911 -0.00969383 0.0397752 0.00809692 -0.00612746 -0.00847198 0.00461108 -0.013336 0.021716 -0.0255442 -0.00141817 -0.0224143 0.000593302 0.0121992 -0.00134783 0.0447685 0.00990438 -0.00868103 0.0146841 -0.0259945 -0.00520565 0.00162319 0.0165303 0.00643801 0.00693886 -0.0117584 -0.0230019 0.00490508 0.0213081
internal_weight=1.21945e+06 1.05694e+06 502965 162510 553979 410583 346021 362270 204800 35200.2 92381.7 141221 81000.8 236858 125412 198975 127310 109105 138231 191709 66678.6 107137 141638 46919.2 64562 17326.1 99062.3 66569.5 62185.6 32382
internal_count=5422188 4861701 3161744 560487 1699957 2334630 2026899 1173221 1294245 101943 827114 732654 657400 757924 415297 679162 458544 368337 696573 526736 563215 601090 478745 141840 307731 46952 486036 597672 226497 80247
is_linear=0
shrinkage=0.05


Tree=14
num_leaves=31
num_cat=0
split_feature=27 10 4 4 10 34 4 29 25 1 34 12 4 21 12 21 13 20 4 4 25 33 27 9 33 25 4 21 30 31
split_gain=80388.3 30056.6 11370.6 5543.58 5340.17 4146.65 3883.48 3090.82 2890.65 2831.6 2591.6 2228.29 2135.39 1602.31 1526.83 1507.6 1396.96 1296.71 1188.21 1125.86 1103.8 1021.16 983.096 981.513 917.829 907.461 887.816 858.082 819.095 666.754
threshold=0.3739917371630927 37.150000000000013 4.8750000000000009 5.2750000000000012 20.850000000000005 5.5000000000000009 5.495000000000001 0.40750000000000003 2.5500000000000003 7.3650000000000011 4.5000000000000009 23.150000000000002 3.3950000000000005 12.550000000000002 57.95000000000001 2.9000000000000008 0.19500000000000003 6.1250000000000009 3.6750000000000003 6.745000000000001 1.8166666666666669 0.95076537708304432 0.25692197409424439 595.50000000000011 0.25819888974715005 1.7750000000000001 3.9150000000000005 17.700000000000003 0.010963624495448953 41.150000000000013
decision_type=10 10 2 2 10 8 2 8 2 8 8 10 2 2 10 2 10 10 2 2 2 2 10 10 2 2 2 2 8 10
left_child=1 2 4 9 12 21 18 23 19 -2 15 25 -1 17 -5 -10 24 28 -7 -4 -13 -3 -20 -6 27 -8 -11 -14 -12 -27
right_child=3 5 8 14 7 6 11 -9 10 26 13 20 16 -15 -16 -17 -18 -19 22 -21 -22 -23 -24 -25 -26 29 -28 -29 -30 -31
leaf_value=-0.038112851350125675 0.034772482570507322 0.012412262794442873 0.0030727824756561477 0.037473529929017778 0.005892135881150294 -0.025785127774154877 0.019660997554237131 -0.017143316509570433 -0.0147115434149395 -0.023071989979132099 -0.021013054156027455 0.032236087332674648 -0.022448575884531075 0.00030158859728915627 0.048708688349060114 0.0068829927318208271 -0.031824822485956077 -0.0019515690151517542 -0.0059003599135118955 0.01715665286574948 0.013300905240524467 0.020746600676535443 0.0054867369605545906 -0.0070713753461016677 -0.00079051012735499148 0.0075266489468261465 0.010582515374646363 -0.007386190375038456 -0.010707688746689648 -0.00038791320495205228
leaf_weight=22781.356820076704 17548.100418327376 155640.71299322741 53552.794883694034 56307.691016944125 27260.837559624575 5623.6652836948633 9126.1237994506955 60688.425464952365 9421.924438522663 2266.833158403635 26958.520398668479 8596.3835731223226 46802.776173723396 44700.131807720289 65317.448180273175 56847.504053591751 22099.065652320627 31648.954540965613 56077.60567877721 19305.239498622715 73519.681337685324 48114.458979077172 28632.143970189616 31442.098464764655 7464.4905235643964 49095.715426998213 14460.62090979144 11849.318236599676 67712.25762252463 58102.744704926386
leaf_count=302892 55615 455258 265417 202873 127506 23481 27425 361679 85794 7427 254549 24060 405441 175685 255671 253786 256777 181859 197863 65841 219112 121836 64376 179353 56018 140838 38901 45794 339546 229515
internal_value=0.00503468 -1.59105e-05 -0.00815695 0.038502 -0.016571 0.00891863 0.00506493 -0.00923111 -0.00190673 0.0207413 -0.00458148 0.00897703 -0.0244659 -0.00783422 0.0435072 0.00381277 -0.0209416 -0.0107132 -0.00352901 0.00680459 0.0152831 0.0143803 -0.00205149 -0.0010513 -0.0173039 0.00452541 0.0060218 -0.0194056 -0.0136423 0.00323687
internal_weight=1.18897e+06 1.03306e+06 540536 155901 230388 492529 288774 119391 310147 34275.6 237289 198441 110997 171020 121625 66269.4 88215.7 126320 90333.4 72858 82116.1 203755 84709.7 58702.9 66116.6 116325 16727.5 58652.1 94670.8 107198
internal_count=5422188 4861701 3357937 560487 1735460 1503764 926670 668538 1622477 101943 1291219 640950 1066922 951639 458544 339580 764030 775954 285720 331258 243172 577094 262239 306859 507253 397778 46328 451235 594095 370353
is_linear=0
shrinkage=0.05


Tree=15
num_leaves=31
num_cat=0
split_feature=10 4 27 10 2 12 4 34 9 12 34 29 25 3 20 25 9 4 2 25 30 12 5 4 4 3 31 30 4 4
split_gain=71519.4 22335.9 12395.4 10049.2 5820.16 4921.63 3763.83 2754.96 2541.15 2489.75 2255.03 1917.17 1856.12 1511.69 1275.81 1233.73 1229.71 1221.86 1142.74 1058.48 1038.39 989.507 947.534 940.718 919.115 819.402 813.385 698.323 698.321 653.208
threshold=53.750000000000007 5.2350000000000012 0.42978650542658692 22.950000000000003 0.60500000000000009 15.350000000000003 5.1950000000000012 4.5000000000000009 652.50000000000011 2.6500000000000008 4.5000000000000009 0.19249999999999998 2.291666666666667 2.5000000000000004 6.0850000000000009 3.2250000000000005 824.50000000000011 2.7650000000000001 0.34500000000000003 3.6333333333333337 0.012387627014972253 61.250000000000007 35.905000000000008 3.8550000000000004 5.6150000000000011 3.5000000000000004 45.250000000000007 0.009394521137427201 4.3750000000000009 7.1450000000000005
decision_type=10 2 10 10 8 8 2 8 10 8 8 8 2 2 10 2 10 2 8 2 8 10 2 2 2 2 10 10 2 2
left_child=1 3 15 9 16 8 11 -7 -3 -1 -11 -4 29 -12 20 -2 -5 -6 -17 25 -10 -8 -19 -15 -20 26 -14 -16 -13 -9
right_child=2 5 6 4 17 7 21 12 14 10 13 28 19 23 27 18 -18 22 24 -21 -22 -23 -24 -25 -26 -27 -28 -29 -30 -31
leaf_value=-0.037670605956435524 0.024086894654916036 0.007542934342190436 0.035480290682621492 0.0073691721019370788 -0.047625297177230644 0.016121048595331838 0.038951683424009009 0.012479938548336214 -0.015550193302212545 -0.0051923278541647746 -0.011808577544333459 -0.016140712792124926 0.013400739686065461 -0.034865659810903969 -0.0054409506904977301 0.020238061036943013 -0.003479814063587524 -0.014680870622684415 0.001248062418502185 -0.0034235654814527305 -0.0042517954878010895 0.048565304146818443 -0.0052497726579148092 -0.022087589501468101 0.016223174542950854 0.00040856007576918713 0.0040777732890562709 0.0064821247587168312 0.01280615402672583 0.028389105571916554
leaf_weight=19315.159903826891 45422.565750406124 65127.875585613772 9084.3425554223359 77093.892915173434 2364.4681631154381 98181.404188678134 56925.682087953202 34699.907986508682 29589.280032540672 25747.659390718443 27599.708760426845 3099.6967705599964 44967.830732285045 19749.342735735234 19796.4244312956 35817.25326317735 39503.37715990888 74692.499794229399 22600.723771076649 39275.791429668665 65028.888333227485 50520.461121031083 41390.681681802962 53211.841151586035 18744.423321365379 46102.244390776381 48767.167887199204 32346.706696594134 6355.2126646470279 7925.7243252890185
leaf_count=344414 126018 327634 29714 287512 20026 297934 217754 112817 260330 194033 136749 9165 120056 221523 131450 87744 192236 355717 57532 143043 297023 204754 192153 453602 57454 177082 187903 137112 17862 23842
internal_value=0.00509213 -0.00138482 0.0288684 -0.0106311 -0.00423663 0.00523363 0.0398821 0.00914816 -0.000676718 -0.020952 -0.0183954 0.0190768 0.00606071 -0.0217759 -0.00432433 0.0175491 0.00369351 -0.0120429 0.0137006 0.00382907 -0.00778506 0.0434719 -0.0113181 -0.0255464 0.00803725 0.0058661 0.00855031 0.00195546 0.00331622 0.0154381
internal_weight=1.16105e+06 912478 248570 380669 235045 531809 125985 319920 211889 145624 126309 18539.3 221739 100561 146761 122585 116597 118448 77162.4 179113 94618.2 107446 116083 72961.2 41345.1 139837 93735 52143.1 9454.91 42625.6
internal_count=5422188 4614191 807997 2397965 1047644 2216226 479249 1062677 1153549 1350321 1005907 56741 764743 811874 825915 328748 479748 567896 202730 628084 557353 422508 547870 675125 114986 485041 307959 268562 27027 136659
is_linear=0
shrinkage=0.05


Tree=16
num_leaves=31
num_cat=0
split_feature=27 10 34 4 4 4 33 4 2 20 14 12 9 32 21 4 12 12 5 9 4 4 20 32 25 4 33 13 25 31
split_gain=63493.1 25138.4 7514.03 6820.22 6610.23 4990.35 3307.73 2873.12 2567.51 2168.55 2003.23 1874.86 1606.23 1589.72 1581.22 1580.25 1391.09 1158.11 1119.36 1075.48 915.191 868.095 815.169 812.19 754.094 723.698 715.434 695.211 694.954 685.288
threshold=0.3739917371630927 26.650000000000002 5.5000000000000009 5.5550000000000006 5.955000000000001 5.2750000000000012 1.0000000180025095e-35 3.6050000000000004 0.37500000000000006 6.7650000000000006 203.50000000000003 18.350000000000005 569.50000000000011 0.026313844478157652 12.350000000000003 3.5650000000000004 60.250000000000007 1.4500000000000002 38.395000000000003 824.50000000000011 7.0450000000000008 2.3650000000000007 4.9750000000000005 1.9840668159837527 2.7083333333333335 3.0750000000000006 0.95076537708304432 0.18500000000000003 3.4500000000000006 70.450000000000017
decision_type=10 10 8 2 2 2 2 2 8 10 2 8 10 10 2 2 10 10 2 8 2 2 10 10 2 2 2 8 2 10
left_child=1 3 11 6 10 8 7 21 -2 13 15 19 20 29 27 -4 -7 -8 28 22 -5 -1 -3 -11 -14 -10 -13 -9 -17 -6
right_child=5 2 4 12 9 16 17 14 25 23 -12 26 24 -15 -16 18 -18 -19 -20 -21 -22 -23 -24 -25 -26 -27 -28 -29 -30 -31
leaf_value=-0.051394193636389009 0.033033818625149959 0.0051315814853735986 -0.027185818794462049 0.0048986083944225082 0.015207950654925499 0.035954489311451197 -0.032670029470225487 -0.014278607331298213 -0.047821903776670928 0.024298536839692225 0.0084090774549131341 0.013872585655796889 0.0023508972499565774 0.0010258523666808262 -0.010387498299237206 -0.0025959700089702876 0.047137375164311601 -0.00036680327530498624 0.0015801224569536665 0.0021095963831299718 0.027685278730468166 -0.029804685726472536 0.015253352590353295 0.010965410570413817 -0.0097749855847706624 0.0070999524467179531 0.021915840103666786 -0.024281524256113244 -0.0098393514638578511 0.0021052536257939493
leaf_weight=5916.2030254416168 16238.566169941798 32921.585511981975 8413.7289145896211 28708.537543595769 41127.359313739464 60214.32593845576 3027.2060623490252 24982.867550052702 623.36866728775203 23959.358432200737 27523.798159120604 115624.40955499792 20036.300885085482 83011.361513888463 56944.539678881411 51570.535559405573 51674.322127595544 33247.412321163807 47837.164750658907 52539.019525588024 5205.4428825248033 21860.289737235522 50259.64541717479 21827.048022264615 35606.734466286376 15864.649280233309 36334.867689102422 57003.916739021661 92526.879066045862 13176.170591091737
leaf_count=112126 54991 133171 50133 134479 103381 238312 58516 231944 2479 79565 61780 326736 113642 333777 317973 223970 220232 229442 196768 232854 19430 238370 182659 87165 274402 44473 91780 573723 392452 61463
internal_value=0.00514644 0.000630911 0.00578345 -0.0116746 0.00144511 0.0360959 -0.0167456 -0.019723 0.0189219 0.00851922 -0.00423911 0.0119811 -0.000180957 0.00537713 -0.016788 -0.00597672 0.0411192 -0.00306259 -0.00504699 0.00771001 0.00839613 -0.0344031 0.0112473 0.0179424 -0.00540862 0.0050235 0.0157958 -0.0212335 -0.00724704 0.0120287
internal_weight=1.13581e+06 991192 698653 292539 410973 144615 202982 166708 32726.6 183101 227872 287680 89557 137315 138931 200348 111889 36274.6 191935 135720 33914 27776.5 83181.2 45786.4 55643 16488 151959 81986.8 144097 54303.5
internal_count=5422188 4861701 2557654 2304047 1590454 560487 1762094 1474136 101943 665351 925103 967200 541953 498621 1123640 863323 458544 287958 813190 548684 153909 350496 315830 166730 388044 46952 418516 805667 616422 164844
is_linear=0
shrinkage=0.05


Tree=17
num_leaves=31
num_cat=0
split_feature=10 4 27 34 34 20 4 4 12 21 25 3 12 29 21 33 4 9 30 12 2 4 4 30 31 9 20 20 31 4
split_gain=56838.4 17687.2 12975.3 8029.04 4912.39 3713.06 3423.57 3269.23 2954.64 2136.24 2026.82 1800.35 1773.5 1712.58 1601.41 1331.59 1290.55 953.042 911.784 896.386 775.4 773.814 712.915 704.883 700.518 693.673 687.801 680.895 680.546 626.313
threshold=51.45000000000001 5.0750000000000011 0.42978650542658692 5.5000000000000009 4.5000000000000009 5.9150000000000009 5.1950000000000012 3.2850000000000006 3.8500000000000001 12.350000000000003 1.9166666666666667 3.5000000000000004 6.9500000000000011 0.19249999999999998 11.15 0.027338624459890704 5.3150000000000004 816.50000000000011 0.013865752735886703 61.250000000000007 0.43500000000000005 6.9050000000000011 2.3650000000000007 0.024729470657941902 37.050000000000004 908.50000000000011 3.8250000000000006 4.455000000000001 75.450000000000017 6.6350000000000007
decision_type=10 2 10 8 8 8 2 2 10 2 2 2 10 8 2 2 2 8 10 10 8 2 2 10 10 10 8 10 10 2
left_child=1 3 15 8 12 11 13 22 -1 18 -7 -6 -3 -4 21 16 20 26 -9 -8 -2 -12 -5 -19 -16 -14 -10 -11 29 -18
right_child=2 4 6 7 5 10 19 9 17 27 14 -13 25 -15 24 -17 28 23 -20 -21 -22 -23 -24 -25 -26 -27 -28 -29 -30 -31
leaf_value=-0.02350102037905745 0.015472268177528765 -0.0042830060679873499 0.03352096061116791 -0.053301864043522842 0.00058680975021885523 0.019496541186803548 0.036773120047756527 -0.026916033689253584 -0.0040620777594556528 -0.014247977891142303 -0.0049747901071338432 -0.0098595973360928423 0.016037124037564715 0.0024259908738404009 0.013072342465140475 0.023287069607682256 0.015303889625329298 -0.013612865337189688 -0.015391473430023768 0.046315497457328964 0.00054269125026589035 0.0063872456866300555 -0.030999683152580695 0.0013180334090441479 0.0044916822001092828 0.0088906971988779778 0.0077906084164725657 -0.0064128087217942033 0.0065589028145569871 0.025889468249329542
leaf_weight=12397.609120100271 12993.63387248572 15748.542829305399 8527.1719086077064 5162.3686080942862 87214.077240398154 23836.078459177166 52704.909621689469 37925.452686800854 15386.255169590004 58187.144765375648 51698.129438715056 78248.61832197872 91368.319219494704 9211.381459210068 41214.178231376223 41467.987784754951 41999.539753803052 13501.968823270407 31349.246992929839 46169.367381819524 26301.25733997114 21101.86954448279 11714.718634401914 19068.021348439623 56248.105091433506 54039.056459724437 59849.518058073008 52970.81779138092 13782.500020892825 20940.319300985895
leaf_count=213963 29329 136477 29714 90200 337072 80835 217754 442882 76634 312980 280973 502581 320153 27027 121196 110257 113743 101182 210550 204754 67749 103772 125993 85112 229344 203967 263972 255813 64057 62153
internal_value=0.00519271 -0.00127047 0.024958 -0.0105716 0.00440102 0.00114976 0.0376002 -0.0167775 -0.000384853 -0.0148092 0.00584101 -0.00435338 0.011655 0.0173738 0.00392929 0.0155968 0.0128481 0.00227349 -0.0217008 0.0412289 0.00547945 -0.00168138 -0.0378215 -0.00487161 0.00812021 0.0133812 0.00536665 -0.0105142 0.0166221 0.0188258
internal_weight=1.11233e+06 838230 274098 317513 520717 359561 116613 197310 120203 180433 194098 165463 161156 17738.6 170262 157485 116017 107806 69274.7 98874.3 39294.9 72800 16877.1 32570 97462.3 145407 75235.8 111158 76722.4 62939.9
internal_count=5422188 4495651 926537 2179281 2316370 1655773 479249 1438418 740863 1222225 816120 839653 660597 56741 735285 447288 337031 526900 653432 422508 97078 384745 216193 186294 350540 524120 340606 568793 239953 175896
is_linear=0
shrinkage=0.05


Tree=18
num_leaves=31
num_cat=0
split_feature=10 4 27 29 12 33 4 4 4 21 12 2 4 33 4 9 20 5 12 30 12 12 5 2 20 20 21 1 25 4
split_gain=50473 16252.9 11790.4 9160.65 4093.8 3697.23 3655.89 3345.27 2729.53 2394.3 1821.22 1659.55 1300.82 1286.44 1237.43 1223.98 1016.65 939.921 888.913 885.808 861.734 815.724 772.639 767.653 749.879 745.132 741.092 739.629 709.165 586.062
threshold=51.45000000000001 5.4150000000000009 0.42978650542658692 0.42250000000000004 4.4500000000000011 1.0000000180025095e-35 3.9150000000000005 5.1950000000000012 6.7550000000000008 10.550000000000002 8.5500000000000025 0.37500000000000006 2.7650000000000001 0.027338624459890704 5.4350000000000014 816.50000000000011 7.2650000000000006 38.035000000000004 0.95000000000000007 0.024286245435042753 61.250000000000007 6.9500000000000011 33.270000000000003 0.43500000000000005 5.8250000000000011 4.2150000000000007 17.700000000000003 6.5750000000000011 3.5500000000000003 3.2250000000000005
decision_type=10 2 10 8 10 2 2 2 2 2 8 8 2 2 2 8 8 2 10 10 10 10 2 8 10 10 2 10 2 2
left_child=1 3 13 4 18 8 12 11 9 24 -8 -4 -5 14 23 25 28 27 -1 -17 -9 -7 -12 -2 -3 -6 -14 -11 -10 -25
right_child=2 5 7 6 15 21 10 20 16 17 22 -13 26 -15 -16 19 -18 -19 -20 -21 -22 -23 -24 29 -26 -27 -28 -29 -30 -31
leaf_value=-0.042490536078860663 0.015491527149144738 -0.010595575727448223 0.032819443664909145 -0.047024901505635076 0.00058055028261264866 -0.00032069498829128009 -0.021591369553445542 0.035708680867988882 0.011075072559980569 -7.7363923073417261e-05 -0.012615098324286389 0.0019327221101754022 -0.02765057202732369 0.022829038938400124 0.016524316311115759 -0.011163539453335829 0.024696581551221689 0.010751717467167545 -0.015657156123199643 0.0024743794320789287 0.045256755946070815 0.015720262004907039 -0.0052516030860627529 -0.047407864965097878 -0.0014925877196722622 0.0099378659614446814 -0.012606579297330398 0.0089967884921589893 -0.0043357134964582085 0.0022438105870053408
leaf_weight=3877.1201754920185 13864.855706018396 42104.445622125175 8153.5440394021571 6914.1972146225162 31799.140970415436 8689.7379762027413 35528.452805485809 50806.887656236999 56267.067591879051 91423.818730010651 71342.384425151162 9320.1927956342697 30451.652525252895 40519.002326408867 70910.457190989051 19392.184053848963 12323.148910365533 43056.942555636168 15132.827286901185 30844.503387316596 44179.416910377331 90106.98649030691 71155.879216209054 606.84345041960478 48897.371328071691 64283.786864251364 11196.101775636431 29768.565593199804 8607.0654332186095 28782.810861410573
leaf_count=96148 31763 294170 29423 109860 159564 71589 356635 217754 231363 337684 365053 27318 301183 110257 228372 153090 46858 158207 227487 141584 204754 306471 354361 2445 277086 287875 49463 124109 45811 74451
internal_value=0.00524761 -0.000880902 0.0241317 -0.00825072 0.000698377 0.00581684 -0.0147804 0.0364509 0.00329303 0.000801486 -0.0114633 0.016345 -0.0269406 0.0151752 0.0124587 0.00353432 0.0115313 0.00440601 -0.0211299 -0.00279008 0.0401496 0.0143094 -0.00893817 0.00579366 -0.00570433 0.00684101 -0.0236063 0.00215153 0.00903047 0.00121859
internal_weight=1.09031e+06 823163 267144 391918 165330 431245 226589 112460 332448 255251 178027 17473.7 48562 154684 114165 146320 77197.3 164249 19009.9 50236.7 94986.3 98796.7 142498 43254.5 91001.8 96082.9 41647.8 121192 64874.1 29389.7
internal_count=5422188 4495651 926537 2602303 1065748 1893348 1536555 479249 1515288 1191256 1076049 56741 460506 447288 337031 742113 324032 620000 323635 294674 422508 378060 719414 108659 571256 447439 350646 461793 277174 76896
is_linear=0
shrinkage=0.05


Tree=19
num_leaves=31
num_cat=0
split_feature=10 27 4 29 34 4 4 12 2 4 22 4 21 29 20 3 25 12 5 20 9 20 31 4 20 25 5 31 27 4
split_gain=45290.8 15680.9 12470.6 5490.04 5330.44 3335.6 3275.76 2487.06 2215.98 2242.11 2116.34 1868.99 1790.67 1629.8 1447.69 1117.47 978.45 850.115 845.898 815.135 809.693 716.538 701.935 687.96 663.503 656.171 631.161 620.464 604.165 579.035
threshold=46.050000000000004 0.42662294744251122 4.7350000000000012 0.40750000000000003 5.5000000000000009 6.2250000000000005 5.1950000000000012 2.6500000000000008 0.33500000000000008 5.5550000000000006 9.9000000000000004 2.7650000000000001 11.15 0.19249999999999998 6.9650000000000007 3.5000000000000004 1.9166666666666667 63.050000000000004 36.660000000000004 5.5250000000000012 595.50000000000011 4.3550000000000013 47.250000000000007 3.2250000000000005 3.8550000000000004 3.6333333333333337 41.190000000000005 45.550000000000004 0.35332622436918654 4.0150000000000006
decision_type=10 8 2 8 8 2 2 10 8 2 2 2 2 8 8 2 2 10 2 10 10 10 10 2 10 2 2 10 10 2
left_child=2 8 3 7 10 12 13 -1 28 23 -4 -5 19 -3 25 27 -11 -8 -12 -6 24 -17 -18 -10 -9 -7 -14 -13 -2 -15
right_child=1 6 4 11 5 14 17 20 9 16 18 15 26 29 -16 21 22 -19 -20 -21 -22 -23 -24 -25 -26 -27 -28 -29 -30 -31
leaf_value=-0.03059922840931999 0.016447275883079645 0.031706230309481324 -0.0076122851129530843 -0.045470421765661018 -0.015928183945774648 0.0044029798013980074 0.035312786673680908 -0.0038964829828545527 -0.040526959978859724 0.02807405154366472 0.0083981731050749766 -0.011032723547478439 -0.0032746209825969229 -0.025712439725835153 0.0172910460641954 -0.029633982393621701 0.01596519595587521 0.045219111671861975 0.016128534520869441 -0.0055995297421760973 -0.0053493493792935451 -0.017304529179170729 0.0067966954641566178 0.00086043091424682628 0.0093185388154548281 -0.0085710149195073245 0.0062486787926024486 -0.021904295402464701 0.027129348714747523 0.006955056919488169
leaf_weight=7337.0821270227898 103740.0873083421 8236.0279204361141 16804.872035282664 6338.4512322028168 43217.988722619368 71897.032313069794 57075.690038692672 14666.888121842872 1025.1784842321649 9822.0541413426399 102846.31460699392 54209.298798456788 109640.45639605704 1647.9208568483591 21163.881576134823 23998.114674863871 41839.297029461712 34898.559177479707 53952.670323146041 34232.940475723706 39241.55568598141 23152.90752210957 41663.710990354419 48780.540033308789 26953.547398644034 11273.773372916505 20679.794242584147 17316.524643894751 15172.848001185805 7670.0096266791224
leaf_count=175104 299733 30343 163564 108640 340291 321074 257591 96066 4852 31807 452868 262456 474257 5800 82089 270486 122117 167068 225489 228775 269879 220705 162653 135530 148308 61574 85543 149970 45912 21644
internal_value=0.00530132 0.0194064 -0.00219743 -0.0122778 0.00222761 -0.00167893 0.035294 -0.00272574 0.0127658 0.0085748 0.0092508 -0.0190169 -0.00534185 0.0155012 0.00561538 -0.017604 0.0131464 0.0390716 0.0110581 -0.011363 -0.000196611 -0.0235798 0.0113906 8.5315e-06 0.00466161 0.00264436 -0.00176342 -0.0136647 0.0178103 0.00117765
internal_weight=1.0705e+06 371572 698924 213214 485710 312106 109528 88199.1 262044 143131 173604 125015 207771 17554 104335 118677 93325.1 91974.2 156799 77450.9 80862 47151 83503 49805.7 41620.4 83170.8 130320 71525.8 118913 9317.93
internal_count=5422188 1285050 4137138 1701614 2435524 1593603 482446 689357 802604 456959 841921 1012257 1128866 57787 464737 903617 316577 424659 678357 569066 514253 491191 284770 140382 244374 382648 559800 412426 345645 27444
is_linear=0
shrinkage=0.05


Tree=20
num_leaves=31
num_cat=0
split_feature=12 27 4 34 29 4 4 2 4 12 12 3 29 4 20 9 25 12 12 25 25 25 31 12 33 27 25 20 20 4
split_gain=40793.9 15567.9 11817.1 6117.92 4004.08 3340.44 3079.59 2529.04 2377.89 1962.31 1859.75 1616.7 1527.14 1401.04 1390.04 1051.26 942.053 819.807 792.244 649.532 641.34 628.76 601.621 713.83 601.478 572.773 570.268 568.031 549.973 538.758
threshold=20.550000000000004 0.42662294744251122 4.495000000000001 5.5000000000000009 0.42250000000000004 5.9150000000000009 5.1950000000000012 0.30500000000000005 5.5750000000000011 6.7500000000000009 2.7500000000000004 3.5000000000000004 0.19249999999999998 2.7650000000000001 6.7650000000000006 874.50000000000011 1.9166666666666667 61.250000000000007 8.2500000000000018 3.4500000000000006 2.7083333333333335 3.5500000000000003 9.6500000000000004 6.9500000000000011 0.62761760276471834 0.35332622436918654 1.9166666666666667 5.2350000000000012 4.9750000000000005 6.3450000000000006
decision_type=10 10 2 8 8 2 2 8 2 8 10 2 8 2 8 10 2 10 10 2 2 2 10 10 2 10 2 10 8 2
left_child=2 7 4 9 10 11 12 25 19 -4 -1 28 -3 -6 20 27 -10 -8 -13 -9 -7 -18 -15 -24 -12 29 -16 -11 -5 -2
right_child=1 6 3 5 13 14 17 8 16 15 24 18 -14 22 26 -17 21 -19 -20 -21 -22 -23 23 -25 -26 -27 -28 -29 -30 -31
leaf_value=-0.030193976008553166 0.013332168788666549 0.03092651135139228 -0.0045538778891364932 -0.0088271087354901846 -0.044797963304534505 0.0058441350496453411 0.033671467029354182 0.0075898220665174187 0.026034536740143693 0.0094065510710436354 -0.0050500732687111432 -0.01710659652144348 0.0010818461109539524 -0.014450802295163127 0.026011046957971934 0.0052439361658233813 0.012782641196063461 0.043323031036548512 -0.0076314487240838466 -0.0035197436528368827 -0.0025560279498042901 0.0023339598223345308 -0.029285305779518891 -0.01744919780807189 0.0064856653799462236 0.026527555854089807 0.0090634581234261737 0.017002810589926073 -0.00037829301323081573 0.020346770118625099
leaf_weight=6365.5656989354175 71077.315570732579 8032.4664005767554 24332.426819538232 26596.386200089008 5895.3157787411474 34724.537464997731 47870.864015806466 19302.114187628962 11382.993090862408 42860.431761062704 38031.618126881542 41450.433789229952 9190.7536280499771 34103.804352007341 6170.2934721969068 56454.37914916873 75958.480100113899 40714.088297935203 47162.076225246768 41323.654154975433 65739.929282816127 17765.441094435751 24085.147455956554 27039.381460820325 16076.254122503102 14651.192775605246 25382.621751874685 57795.924113710877 69842.234015285037 44518.257557828445
leaf_count=162519 186147 30378 250635 139349 107820 151412 219905 55169 37616 183855 297774 393979 27445 184834 18554 268474 262623 204754 269707 123632 340116 64759 314598 213505 84853 45406 109550 223838 297945 151037
internal_value=0.00536011 0.0178851 -0.0023807 0.00133672 -0.014605 -0.00285342 0.0343461 0.0120005 0.00790318 0.0086589 -0.00463012 -0.00718818 0.0150006 -0.0212248 0.0032227 0.0107052 0.0124517 0.0381074 -0.0120637 1.73349e-05 0.000347404 0.0108021 -0.0195942 -0.0230253 -0.00162263 0.0172141 0.0123776 0.0137683 -0.00270836 0.0160336
internal_weight=1.0519e+06 401788 650109 498512 151597 317069 105808 295979 165733 181443 60473.4 185051 17223.2 91123.6 132017 157111 105107 88585 88612.5 60625.8 100464 93723.9 85228.3 51124.5 54107.9 130247 31552.9 100656 96438.6 115596
internal_count=5422188 1408871 4013317 2647414 1365903 1720612 482482 926389 543799 926802 545146 1100980 57823 820757 619632 676167 364998 424659 663686 178801 491528 327382 712937 528103 382627 382590 128104 407693 437294 337184
is_linear=0
shrinkage=0.05


Tree=21
num_leaves=31
num_cat=0
split_feature=10 4 27 29 34 4 4 12 4 2 4 22 21 2 12 20 20 20 9 25 27 12 4 5 4 4 5 20 34 25
split_gain=36546.5 12099.5 11254.5 6993.83 4675.43 2679.74 2639.85 2423.7 2072.82 2025.94 1963.6 1522.34 1484.52 1152.8 1037.84 899.274 829.443 795.209 785.577 772.611 763.358 730.468 680.774 662.418 628.683 585.185 558.925 530.078 529.459 517.851
threshold=48.350000000000001 5.035000000000001 0.46321273908336341 0.42250000000000004 5.5000000000000009 5.0750000000000011 6.6850000000000014 4.6500000000000012 3.6050000000000004 0.30500000000000005 5.2550000000000008 9.9000000000000004 8.1500000000000004 0.43500000000000005 7.7500000000000009 7.3150000000000004 5.6350000000000007 5.5250000000000012 595.50000000000011 2.5500000000000003 0.3739917371630927 0.95000000000000007 2.2250000000000005 38.605000000000011 3.2250000000000005 6.3450000000000006 35.82500000000001 3.8250000000000006 5.5000000000000009 3.5500000000000003
decision_type=10 2 10 8 8 2 2 10 2 8 2 2 2 8 8 8 8 10 10 2 10 10 2 2 2 2 2 10 8 2
left_child=1 3 9 7 11 13 12 21 22 20 24 -3 17 -4 -10 29 -14 -6 27 -12 -2 -1 -5 -13 -11 28 -16 -9 -7 -8
right_child=2 4 5 8 6 25 15 18 14 10 19 23 16 -15 26 -17 -18 -19 -20 -21 -22 -23 -24 -25 -26 -27 -28 -29 -30 -31
leaf_value=-0.039565098435176228 0.017206080047332553 -0.0044705298655773563 0.031018567001531716 -0.0511572332130147 -0.015196746822225771 0.038923286703003622 0.0090476547724082559 -0.00082012951998540549 -0.022879499868725412 -0.040757673188242118 0.02119352972003033 0.010523904723858519 -0.0034444466063310621 -0.0039973082492154232 -0.014041643659907586 0.024099362128340466 0.0037325695372050494 -0.0039674865763074593 -0.00097212729877120042 0.01061319218864374 0.029172068863736002 -0.012486162216677518 -0.026017168549651738 0.018073153958754289 0.00057366118932042863 0.04197223826899997 -0.006579562023149548 0.011227658320178241 0.026384947207995266 -0.0060118981554955798
leaf_weight=3101.9114024202572 83923.384691284969 14454.528248539893 3972.344836069271 3069.080151852686 25603.519193078624 18498.004320124164 45228.298454531468 12456.620629356243 23749.177227406297 945.79161886870861 23779.68076399155 109695.57019589632 71916.563178892713 5757.1013930700719 69350.177540382603 9215.6986062265933 91444.951508855913 41032.554631434847 50913.640698523261 62880.252990355715 15844.511979145929 12633.93098449544 21965.980363110546 39528.979178648908 33808.180780883878 43570.761383089237 39323.290699672187 34185.771989063593 15453.448441642337 6533.046585037373
leaf_count=93022 235319 141819 15324 64849 215075 87716 193540 69789 287034 4416 83235 468221 327909 17639 421573 34201 361536 274343 317870 218863 62977 207451 233270 158893 93006 219188 231556 165883 78726 37945
internal_value=0.00540929 -0.000720672 0.0198263 -0.00908865 0.00426252 0.0350332 0.000459669 0.00038519 -0.0159051 0.0138275 0.0094897 0.0110229 -0.00199252 0.010299 -0.0134108 0.00970901 0.000573035 -0.0082821 0.00332235 0.0135165 0.0191064 -0.0178241 -0.0290991 0.0125237 -0.000551126 0.0381375 -0.0113415 0.0080101 0.0332163 0.00714692
internal_weight=1.03384e+06 725403 308433 270750 454654 87251.7 290975 113292 157458 221182 121414 163679 229998 9729.45 132423 60977 163362 66636.1 97556 86659.9 99767.9 15735.8 25035.1 149225 34754 77522.2 108673 46642.4 33951.5 51761.3
internal_count=5422188 4305779 1116409 2092297 2213482 418593 1444549 854015 1238282 697816 399520 768933 1178863 32963 940163 265686 689445 489418 553542 302098 298296 300473 298119 627114 97422 385630 653129 235672 166442 231485
is_linear=0
shrinkage=0.05


Tree=22
num_leaves=31
num_cat=0
split_feature=10 27 34 4 2 4 12 4 4 4 29 13 25 25 12 25 27 12 32 21 33 33 4 38 20 4 5 33 31 25
split_gain=33418.1 15301.1 7856.76 6781.11 3775.27 2929.43 2686.93 2412.13 1930.39 1852.82 1490.11 1251.23 1058.14 1014.12 887.728 872.709 863.675 801.541 777.533 752.474 717.331 675.544 669.65 641.671 589.784 534.909 511.621 499.154 492.23 455.428
threshold=40.050000000000004 0.41680418041804185 5.5000000000000009 5.035000000000001 0.34500000000000003 5.1950000000000012 5.4500000000000011 6.1750000000000007 7.1050000000000013 3.7050000000000005 0.19249999999999998 0.18500000000000003 2.5500000000000003 3.4500000000000006 7.0500000000000007 1.7750000000000001 0.56788764926348834 0.75000000000000011 1.6656260449281091 12.550000000000002 0.95076537708304432 0.66421116415509551 2.2250000000000005 1.7450000000000006 6.5550000000000006 4.2150000000000007 37.015000000000008 0.80178372573730627 58.150000000000013 4.2250000000000005
decision_type=10 8 8 2 8 2 10 2 2 2 8 10 2 2 8 2 10 10 10 2 2 2 2 2 10 2 2 2 8 2
left_child=2 4 6 9 20 10 17 13 12 22 -3 21 -5 -6 -11 -9 -7 -1 24 26 -2 -8 -4 -15 -17 -12 -14 -19 -10 -16
right_child=1 5 3 8 7 16 11 15 28 14 25 -13 19 23 29 18 -18 27 -20 -21 -22 -23 -24 -25 -26 -27 -28 -29 -30 -31
leaf_value=-0.03735210161758077 0.014009026320600738 0.029262644141956524 -0.049008029342116219 0.0038941662843023136 0.0066500397823038987 0.031115367511168331 0.0076932458152673376 0.026233806467390944 0.010840868173647768 -0.022456438585655925 -0.020009723298565315 0.00050658032305445847 -0.010031698132977022 -0.001875719549362075 -0.0089433216227419576 0.0099037365056746512 0.041213004685816151 -0.010746242152353922 0.0045541686630795044 0.0003560543540655287 0.021761442448896676 0.015900221560173643 -0.024442936110085509 -0.02675548936151876 0.021338300218477345 0.0072685584254362657 -0.0020273716639864392 0.0050289215168486841 0.034186091164083436 -0.016522685022029322
leaf_weight=2305.8423625924625 138543.24981389614 8594.0770095456392 3105.2649638078874 41335.976935346145 47214.575862871483 44990.954428482801 73300.790068949573 9402.0343895219266 14241.166905065067 20555.447040044703 2344.4646174460649 43563.888310760958 67627.329545198707 67201.495294067077 71692.344172644662 29051.64933093451 40006.636074112728 19007.638979473151 35425.998343527317 41997.047161698341 38029.869727755431 38110.94243419636 26028.507189978845 2695.4997649947181 18431.602801768109 7698.321023883298 28325.19374344172 6811.4411158633884 2683.3870740579441 27392.217751523014
leaf_count=68393 456650 33896 76810 207859 159371 217580 398454 32520 69443 284821 8049 250992 451234 220049 484337 99831 216609 266340 145954 175894 110359 154803 292311 13833 67641 21899 184000 73051 7376 171829
internal_value=0.00546396 0.0148734 -0.00326033 -0.00770343 0.0102935 0.0319318 0.005111 0.00575302 -0.0015993 -0.0157538 0.0139792 0.00769129 -0.00312306 0.000988871 -0.0130004 0.0117971 0.0358681 -0.00910703 0.01016 -0.00522575 0.0156787 0.0105006 -0.0270612 -0.00283518 0.0143423 0.000900508 -0.00766882 -0.00658453 0.0145423 -0.0110387
internal_weight=1.01771e+06 489630 528084 344984 385996 103634 183101 209423 196210 148774 18636.9 154976 179286 117112 119640 92311.3 84997.6 28124.9 82909.3 137950 176573 111412 29133.8 69897 47483.3 10042.8 95952.5 25819.1 16924.6 99084.6
internal_count=5422188 1804241 3617947 2405914 1306208 498033 1212033 739199 1095806 1310108 63844 804249 1018987 393253 940987 345946 434189 407784 313426 811128 567009 553257 369121 233882 167472 29948 635234 339391 76819 656166
is_linear=0
shrinkage=0.05


Tree=23
num_leaves=31
num_cat=0
split_feature=12 27 1 4 2 12 4 4 4 20 13 29 25 12 20 12 25 32 4 9 4 5 20 33 33 22 32 25 31 33
split_gain=30483.4 13251.3 8509.3 6817.65 3551.24 3464.23 2662.64 2248.63 2033.32 1767.32 1361.75 1310.02 1090.19 871.455 792.551 772.982 752.549 708.974 673.074 646.991 643.433 640.601 616.036 604.696 592.224 552.322 494.76 479.744 478.127 445.544
threshold=18.250000000000004 0.42662294744251122 8.3850000000000016 5.2350000000000012 0.36500000000000005 5.4500000000000011 5.1950000000000012 6.535000000000001 3.9450000000000007 6.3150000000000004 0.18500000000000003 0.19249999999999998 3.4500000000000006 1.0500000000000003 4.2350000000000012 63.050000000000004 2.183333333333334 1.9460731907894739 2.5150000000000001 824.50000000000011 4.5950000000000006 39.140000000000008 5.0050000000000008 0.95076537708304432 0.33292257121386937 13.800000000000002 0.012720210528735053 3.9166666666666674 75.450000000000017 0.13041013273934607
decision_type=10 10 8 2 8 10 2 2 2 8 10 8 2 10 8 10 2 10 2 10 2 2 8 2 2 2 10 2 10 2
left_child=2 4 5 8 23 13 11 12 18 21 19 -3 -6 -1 -10 29 -11 28 -4 22 -14 26 -7 -2 -15 -16 -5 -13 -9 -8
right_child=1 6 3 9 7 10 15 17 14 16 -12 27 20 24 25 -17 -18 -19 -20 -21 -22 -23 -24 -25 -26 -27 -28 -29 -30 -31
leaf_value=-0.033469526155130484 0.014512003828622264 0.028659007439163126 -0.045173737763498499 -0.00046713323528586897 0.0078020056753102937 0.0080988378013861755 0.028334818802040453 0.02227385076423689 -0.023368326736532673 0.016015009297198662 0.00076163565476003708 0.0084738819978389789 -0.00921213669342919 -0.013136799786549712 -0.017687970313338103 0.041592782861262355 0.0030003057477911749 0.0079936609526154584 -0.022832424190045154 0.0051588899160285289 0.0013536252096443097 0.0025276614707887592 0.016242128838365035 0.021938372447915702 0.0017057150784242478 -0.0084937571430171825 -0.0089012100134793423 -0.016022003847956733 0.0080942979229170348 0.038599926454247431
leaf_weight=3553.558675095439 127056.63093442656 7470.1410247385502 3718.1375046331668 24205.843384593725 59499.100743819028 41367.616956098936 34925.730203928892 26117.189685191959 13154.594753718935 14642.403040322475 50407.554709321586 6022.302264995873 18847.334877329413 16755.467473810073 20409.778532068478 29978.699059105944 46005.585167720448 25414.582742696162 36130.214817814762 41180.800117987674 61192.439569831826 25287.842446420807 52953.447020227555 34951.236503635067 11221.691544092027 81803.518701635767 61738.755390658975 2991.6993450634181 7697.2110173311085 15158.650883438066
leaf_count=109231 412166 30378 84772 103168 203431 223879 182405 83436 117264 52099 316433 17403 67490 265305 241242 167068 219835 105203 368612 241114 203704 140279 238397 101494 123586 485321 391234 10042 41011 75186
internal_value=0.00550531 0.0150223 -0.00248744 -0.0075835 0.0106194 0.00517861 0.031475 0.00614088 -0.0151797 -0.00072381 0.00777769 0.0131755 0.0026761 -0.0101459 -0.0118164 0.0352426 0.00614248 0.0143036 -0.024917 0.0103877 -0.00113434 -0.00446756 0.0126706 0.0161142 -0.00718344 -0.0103296 -0.0065258 0.000343827 0.0190461 0.0314417
internal_weight=1.00186e+06 457323 544537 327097 360776 217440 96547.2 198768 155216 171880 185909 16484.1 139539 31530.7 115368 80063.1 60648 59229 39848.4 135502 80039.8 111232 94321.1 162008 27977.2 102213 85944.6 9014 33814.4 50084.4
internal_count=5422188 1700417 3721771 2203826 1217935 1517945 482482 704275 1297211 906615 1019823 57823 474625 498122 843827 424659 271934 229650 453384 703390 271194 634681 462276 513660 388891 726563 494402 27445 124447 257591
is_linear=0
shrinkage=0.05


Tree=24
num_leaves=31
num_cat=0
split_feature=10 27 2 4 2 12 4 4 4 4 13 2 12 12 5 27 14 20 13 4 33 4 21 31 33 4 38 20 25 31
split_gain=27531.5 11331.9 8680.26 6770.62 3453.57 3192.72 2329.96 1948.89 1809.27 1703.15 1159.34 990.145 964.717 939.627 809.025 744.022 740.585 713.953 668.289 666.338 633.699 587.73 585.684 577.254 563.505 602.921 556.109 508.302 492.977 491.681
threshold=42.45000000000001 0.46321273908336341 0.60500000000000009 5.2550000000000008 0.34500000000000003 6.5500000000000007 5.0750000000000011 5.5950000000000006 3.9450000000000007 6.9250000000000007 0.18500000000000003 0.43500000000000005 1.6500000000000001 25.050000000000004 37.085000000000008 0.35659394858607435 247.50000000000003 4.2150000000000007 0.19500000000000003 2.5150000000000001 0.66421116415509551 6.6850000000000014 12.450000000000001 86.700000000000017 0.037872267732808655 6.2150000000000007 1.7450000000000006 7.3150000000000004 1.9166666666666667 44.150000000000013
decision_type=10 10 8 2 8 10 2 2 2 2 10 8 10 8 2 10 2 8 10 2 2 2 2 8 2 2 2 8 2 10
left_child=2 4 5 8 15 12 11 16 19 14 20 -3 -1 29 23 21 26 -10 -14 -4 -7 -2 -19 -5 25 -8 -6 -11 -15 -9
right_child=1 6 3 9 7 10 24 13 17 27 -12 -13 18 28 -16 -17 -18 22 -20 -21 -22 -23 -24 -25 -26 -27 -28 -29 -30 -31
leaf_value=-0.026149950759473836 0.013537017526607149 0.028898452471599795 -0.043681222819192476 -0.006204434113493122 -0.0022193347324923067 0.0089190816910746009 0.024254901443161989 0.01155997248188317 -0.021854745135992198 0.0081640266470780452 0.0022599720645806853 -0.0043541785667415818 0.00030726429361652575 0.029896279950439392 0.0034480465660748217 0.02587629597763888 0.0082837869519553735 -0.013606544137008328 -0.015741976267868739 -0.021150674486862951 0.016337555824665267 0.021073778100024643 -0.0062211977243366509 0.0029283210619314532 0.041506950591279179 0.036306315776188695 -0.025174842269415063 0.024961170635130592 0.013916260312516124 0.0029597412287915969
leaf_weight=5502.7387396070408 101418.86471684277 3707.8161523453891 3597.9699363189284 85378.856571803102 44355.480076695792 92921.195355978562 15934.136398189701 28967.107173755765 13414.927426081849 19518.793772281148 49370.839855068363 5649.8242939393967 26437.528780654189 5400.0230226833373 48181.478899497073 19610.19076939486 18222.393080078065 49791.597014419036 8595.0069798610639 37326.069188077468 41707.841664890293 34723.416364836041 58250.125757617876 21699.794770580251 24464.645389620215 29764.531887758058 2805.1688542859629 5854.94198421482 45424.057939676568 38985.674100200646
leaf_count=159039 305777 15324 85470 498874 145221 513080 86540 93380 116437 92589 290943 17639 297630 19677 250490 72975 51952 451810 131000 377176 161067 126141 311482 80263 133270 165820 14164 22137 170222 164599
internal_value=0.00555163 0.0152657 -0.00162729 -0.00663017 0.0112906 0.00601544 0.0322572 0.00665569 -0.0140392 3.01528e-05 0.00881388 0.00882165 -0.0066874 0.0104719 -0.00193257 0.0167709 -0.000276967 -0.0109756 -0.00363031 -0.0231315 0.0112173 0.0154593 -0.00962477 -0.00435366 0.0353828 0.0321042 -0.00358475 0.0120399 0.0156141 0.00662587
internal_weight=986983 419433 567550 343015 339912 224535 79521 184160 162381 180634 184000 9357.64 40535.3 118777 155260 155752 65383 121457 35032.5 40924 134629 136142 108042 107079 70163.3 45698.7 47160.6 25373.7 50824.1 67952.8
internal_count=5422188 1582701 3839487 2286728 1164108 1552759 418593 659215 1342375 944353 965090 32963 587669 447878 829627 504893 211337 879729 428630 462646 674147 431918 763292 579137 385630 252360 159385 114726 189899 257979
is_linear=0
shrinkage=0.05


Tree=25
num_leaves=31
num_cat=0
split_feature=10 27 34 4 2 4 20 4 12 29 25 4 13 12 20 12 5 5 38 4 10 33 12 31 32 4 5 33 33 25
split_gain=25248.7 11342.3 7770.92 5644.56 3987.63 2440.36 2193.9 2058.7 1842.98 1205.57 1096.01 1062.34 1053.49 854.216 753.056 746.897 603.484 598.943 579.345 575.29 573.323 555.473 475.167 470.871 451.019 447.773 446.665 438.455 437.976 437.014
threshold=39.650000000000013 0.42662294744251122 5.5000000000000009 4.6550000000000011 0.51500000000000012 5.1950000000000012 6.4050000000000011 6.4850000000000012 3.8500000000000001 0.19249999999999998 3.4500000000000006 3.4850000000000008 0.18500000000000003 9.5500000000000025 7.0950000000000006 63.050000000000004 34.335000000000008 34.715000000000011 1.6799999999999999 6.9850000000000012 22.750000000000004 0.88019942353445335 0.55000000000000016 17.250000000000004 2.6405544354838715 3.4850000000000008 38.395000000000003 0.037872267732808655 0.59292706128157757 4.8166666666666673
decision_type=10 8 8 2 8 2 8 2 10 8 2 2 8 8 8 10 2 2 2 2 10 2 10 10 10 2 2 2 2 2
left_child=2 4 8 11 16 9 10 13 22 -3 -6 29 21 -5 -9 27 -2 -15 26 -8 23 -10 -1 -13 -21 -11 -12 -7 -14 -4
right_child=1 5 3 7 6 15 19 14 12 25 18 20 28 17 -16 -17 -18 -19 -20 24 -22 -23 -24 -25 -26 -27 -28 -29 -30 -31
leaf_value=-0.037575529880553675 0.012896402422620468 0.027268655523777982 -0.022425948096201898 -0.01040311122439283 0.0069609351142235435 0.02634013780538871 0.0092918332394427705 0.0034844869658423247 0.0084171137614446438 -0.039250952563799291 -0.0031932876230827247 -0.012587452777513894 -0.0021665547141627092 -0.0055620772085478859 0.018499723672245161 0.039926563963226899 0.018730874364196494 0.001368296775970487 -0.028635762126061795 0.024708262077094801 -0.0095963491858823309 0.016468018517007518 -0.0077596556362896545 -0.022573093784586461 0.010809365664661758 0.0029444703573704911 0.0055368591862964903 0.03669491047674537 0.0081500080095259463 -0.039449666360772774
leaf_weight=1492.4279509693151 98463.850891468115 7162.4480631379411 12104.168257116689 49252.425786918262 63699.744968669489 32303.422503924929 34711.219394328073 34984.787150303833 83157.113878265256 680.67545730900019 61503.116383863613 22291.806396232452 29362.657697839662 74308.721577942837 10968.275626807474 27963.516965599731 80599.655642556958 53708.090686918702 1958.4877489479259 14981.973860025406 37419.570815390442 28860.222347569652 12770.187546932604 25096.876226070803 9562.0499479779974 8239.5322111067362 19233.156919032335 14956.424633191898 15836.271424053703 5475.1083960741526
leaf_count=54255 332041 30378 168988 469895 228923 178490 136640 185781 484435 3019 218578 157031 219497 390348 44268 167068 264467 269025 11421 58040 259184 124314 231123 336396 42083 24426 65035 79101 85075 102863
internal_value=0.00559704 0.0138273 -0.00228437 -0.00682113 0.0100673 0.0296699 0.00531725 -0.00236261 0.00633018 0.0119914 0.00203164 -0.0165415 0.00789144 -0.00480738 0.00706839 0.0334496 0.0155226 -0.00265451 -0.00176539 0.0134346 -0.0142227 0.0104914 -0.0108796 -0.0178758 0.0192934 -0.000275341 -0.00111357 0.0296171 0.00144804 -0.027728
internal_weight=973108 476019 497089 325610 384713 91306 205650 223222 171479 16082.7 146395 102388 157216 177269 45953.1 75223.4 179064 128017 82694.8 59255.2 84808.3 112017 14262.6 47388.7 24544 8920.21 80736.3 47259.8 45198.9 17579.3
internal_count=5422188 1839710 3582478 2383779 1357228 482482 760720 1359317 1198699 57823 523957 1024462 913321 1129268 230049 424659 596508 659373 295034 236763 752611 608749 285378 493427 100123 27445 283613 257591 304572 271851
is_linear=0
shrinkage=0.05


Tree=26
num_leaves=31
num_cat=0
split_feature=12 27 1 4 2 12 4 4 4 20 14 9 2 20 20 25 25 12 32 3 4 33 20 31 3 33 5 4 33 20
split_gain=22975.9 10558.7 8167.81 5167.75 4346.78 2316.55 2216.81 2098.95 1851.35 1238.61 1054.01 981.628 886.988 816.594 804.618 757.614 735.89 705.772 694.426 657.205 595.078 560.433 570.591 550.848 522.78 521.151 511.976 505.498 500.678 476.801
threshold=16.850000000000005 0.46321273908336341 8.3850000000000016 5.5150000000000006 0.58500000000000008 5.4500000000000011 6.1750000000000007 5.0750000000000011 4.0750000000000011 6.3750000000000009 285.50000000000006 824.50000000000011 0.43500000000000005 7.0250000000000012 4.3750000000000009 4.2250000000000005 3.7083333333333335 1.0500000000000003 1.2643544506816362 3.5000000000000004 2.6450000000000005 0.037872267732808655 6.3150000000000004 67.250000000000014 1.5000000000000002 0.52349710314598696 40.32500000000001 7.2350000000000012 0.80178372573730627 4.8250000000000011
decision_type=10 8 8 2 8 10 2 2 2 8 2 8 8 8 8 2 2 10 10 2 2 2 10 10 2 2 2 2 2 10
left_child=2 4 5 8 16 17 10 12 20 -5 15 14 -3 18 -7 26 25 -1 23 -10 -4 22 -9 -8 -11 -2 -6 -26 -19 -21
right_child=1 7 3 9 6 11 13 21 19 24 -12 -13 -14 -15 -16 -17 -18 28 -20 29 -22 -23 -24 -25 27 -27 -28 -29 -30 -31
leaf_value=-0.029834728033766383 0.015128085909483746 0.027616832880008452 -0.040667713195376133 -0.0034471000986601111 -0.00088801965769957263 0.0034293478029473602 0.017306406548498975 0.024208880197659807 -0.0064673393450526417 0.023748232907864538 0.011236605609559936 0.0030212744159257066 -0.004318191192327305 0.022025359026610066 0.013761543369609792 -0.010327286249675398 0.010158177108065878 -0.0082482619783178762 0.0041941114322086295 -0.018223987853813416 -0.01995726038049506 0.039975933360300461 0.035740867559461625 0.0046999450819769544 0.0023112252431295045 0.021345827584043905 0.0086098494250278681 0.015409456028561731 0.0080672015672027496 -0.0092397338408976085
leaf_weight=3035.7163350059418 86996.570448596496 3558.8477462381124 3788.2235287250951 73493.303262469359 71412.79496415332 24852.258179250406 29733.373459624127 20311.500686786603 66556.846930417698 4240.663551049307 21584.63805493433 55710.66051062569 5588.9527156287804 14882.119242566638 77924.005021444755 17695.788271487691 44343.939756774344 19681.888516611885 36387.42176536005 29411.9376130288 41088.523309444077 22933.45811170619 22730.249043938238 12229.418355604634 32064.436328864656 55010.687607944477 17706.517776701599 9562.8768157968298 6178.2250174495857 29659.949532853207
leaf_count=109231 315375 15324 94739 443153 265795 156168 92551 119803 369474 9892 70937 380215 17639 61476 397825 68172 144939 320577 154339 286524 429706 133270 132557 65767 156684 173598 62488 43612 68314 262044
internal_value=0.00563772 0.0133244 -0.00214334 -0.00740249 0.0101525 0.00599217 0.00542013 0.0305506 -0.0129883 0.000576706 0.00115906 0.00836598 0.00810577 0.0112885 0.0112631 -0.000877357 0.0157809 -0.00702766 0.00924909 -0.00987432 -0.0217055 0.0336627 0.0302989 0.0136324 0.00702397 0.0175367 0.000999048 0.00532023 -0.00435034 -0.013713
